{"learner":{"attributes":{"scikit_learn":"{\"_estimator_type\": \"classifier\"}"},"feature_names":[],"feature_types":[],"gradient_booster":{"model":{"gbtree_model_param":{"num_parallel_tree":"1","num_trees":"300"},"iteration_indptr":[0,3,6,9,12,15,18,21,24,27,30,33,36,39,42,45,48,51,54,57,60,63,66,69,72,75,78,81,84,87,90,93,96,99,102,105,108,111,114,117,120,123,126,129,132,135,138,141,144,147,150,153,156,159,162,165,168,171,174,177,180,183,186,189,192,195,198,201,204,207,210,213,216,219,222,225,228,231,234,237,240,243,246,249,252,255,258,261,264,267,270,273,276,279,282,285,288,291,294,297,300],"tree_info":[0,1,2,0,1,2,0,1,2,0,1,2,0,1,2,0,1,2,0,1,2,0,1,2,0,1,2,0,1,2,0,1,2,0,1,2,0,1,2,0,1,2,0,1,2,0,1,2,0,1,2,0,1,2,0,1,2,0,1,2,0,1,2,0,1,2,0,1,2,0,1,2,0,1,2,0,1,2,0,1,2,0,1,2,0,1,2,0,1,2,0,1,2,0,1,2,0,1,2,0,1,2,0,1,2,0,1,2,0,1,2,0,1,2,0,1,2,0,1,2,0,1,2,0,1,2,0,1,2,0,1,2,0,1,2,0,1,2,0,1,2,0,1,2,0,1,2,0,1,2,0,1,2,0,1,2,0,1,2,0,1,2,0,1,2,0,1,2,0,1,2,0,1,2,0,1,2,0,1,2,0,1,2,0,1,2,0,1,2,0,1,2,0,1,2,0,1,2,0,1,2,0,1,2,0,1,2,0,1,2,0,1,2,0,1,2,0,1,2,0,1,2,0,1,2,0,1,2,0,1,2,0,1,2,0,1,2,0,1,2,0,1,2,0,1,2,0,1,2,0,1,2,0,1,2,0,1,2,0,1,2,0,1,2,0,1,2,0,1,2,0,1,2,0,1,2,0,1,2,0,1,2,0,1,2,0,1,2,0,1,2,0,1,2,0,1,2,0,1,2],"trees":[{"base_weights":[-2.3489529E-1,-1.06146835E-1,-5.022415E-1,-2.1526723E-1,1.4084683E-1,-5.402758E-1,9.261741E-2,-3.9098823E-1,-9.970982E-2,3.7425214E-1,-1.774827E-1,7.714285E-1,-5.5189306E-1,-2.1630904E-1,4.548944E-1,-4.4747597E-1,-3.3296782E-3,6.3324496E-2,-2.8471532E-1,5.4293627E-1,-5.891599E-2,-2.887883E-1,2.6300144E-1,-1.7027028E-1,3.974026E-1,3.5820892E-1,-5.6771904E-1,-2.440192E-1,8.9719623E-1,-4.7123566E-1,6.541353E-1,9.170984E-1,-2.510461E-1,4.6767047E-1,-3.6801796E-2,8.297872E-1,-3.1643757E-1,9.3087196E-1,2.916876E-1,2.7615058E-1,-4.831859E-1,-3.3611447E-1,5.744681E-1,1.1764705E0,-5.6711216E-3,-2.0117651E-1,1.032E0,-5.775747E-1,6.185567E-1,-6.568048E-1,3.6734694E-1,1.2758621E0,-1.956522E-1,-2.0179181E-1,-1.093885E-1,3.7741938E-1,-1.836735E-1,-5.901641E-2,4.0212765E-1,1.1387754E-1,-1.702703E-1,-1.4145398E-2,2.6327506E-1,-3.0370042E-2,2.8916967E-1,-8.490568E-2,4.0824744E-1,-1.351894E-1,-2.5097616E-2,3.6700127E-1,1.2989691E-1,4.6511497E-3,2.0204082E-1,1.6437612E-1,-1.8208094E-1,-1.7094974E-1,2.6756757E-1,-1.086395E-1,3.122449E-1,-1.8679248E-1,3.5257733E-1,4.195489E-1,-6.206898E-2,2.7079645E-1,-7.411766E-2,4.114286E-1,-1.5517244E-1,3E-1,-1.7504722E-1,-1.7560977E-1,3.8769233E-1,-2.1210195E-1,-7.663455E-9,4.3319505E-1,-1.5517244E-1],"categories":[],"categories_nodes":[],"categories_segments":[],"categories_sizes":[],"default_left":[0,0,0,0,0,0,0,0,0,0,0,0,0,0,0,0,0,0,0,0,0,0,0,0,0,0,0,0,0,0,0,0,0,0,0,0,0,0,0,0,0,0,0,0,0,0,0,0,0,0,0,0,0,0,0,0,0,0,0,0,0,0,0,0,0,0,0,0,0,0,0,0,0,0,0,0,0,0,0,0,0,0,0,0,0,0,0,0,0,0,0,0,0,0,0],"id":0,"left_children":[1,3,5,7,9,11,13,15,17,19,21,23,25,-1,27,29,31,33,35,37,39,41,43,-1,-1,45,47,49,51,53,55,57,59,61,63,65,67,69,71,73,75,77,79,81,83,-1,85,87,89,91,-1,93,-1,-1,-1,-1,-1,-1,-1,-1,-1,-1,-1,-1,-1,-1,-1,-1,-1,-1,-1,-1,-1,-1,-1,-1,-1,-1,-1,-1,-1,-1,-1,-1,-1,-1,-1,-1,-1,-1,-1,-1,-1,-1,-1],"loss_changes":[1.4433264E2,7.637348E1,3.0893005E1,3.9862038E1,6.4599915E1,1.9952911E1,2.4728048E1,1.7061874E1,3.581391E1,3.667183E1,1.8123829E1,9.394453E0,1.8506714E1,0E0,1.811417E1,1.8109467E1,2.305608E1,2.5590654E1,1.9923607E1,3.4914536E1,2.0240984E1,1.221797E1,1.8358936E1,0E0,0E0,1.6173386E1,1.4965149E1,1.4881082E1,2.1757488E1,1.40616455E1,1.2072348E1,1.037496E1,1.6117744E1,2.6514183E1,3.280165E1,9.6432295E0,1.6875656E1,2.0066505E1,2.3245356E1,1.9452265E1,7.987934E0,1.0395653E1,1.1999405E1,5.5107784E0,1.3110551E1,0E0,8.012926E0,1.2153381E1,9.498802E0,6.19154E-1,0E0,9.489197E0,0E0,0E0,0E0,0E0,0E0,0E0,0E0,0E0,0E0,0E0,0E0,0E0,0E0,0E0,0E0,0E0,0E0,0E0,0E0,0E0,0E0,0E0,0E0,0E0,0E0,0E0,0E0,0E0,0E0,0E0,0E0,0E0,0E0,0E0,0E0,0E0,0E0,0E0,0E0,0E0,0E0,0E0,0E0],"parents":[2147483647,0,0,1,1,2,2,3,3,4,4,5,5,6,6,7,7,8,8,9,9,10,10,11,11,12,12,14,14,15,15,16,16,17,17,18,18,19,19,20,20,21,21,22,22,25,25,26,26,27,27,28,28,29,29,30,30,31,31,32,32,33,33,34,34,35,35,36,36,37,37,38,38,39,39,40,40,41,41,42,42,43,43,44,44,46,46,47,47,48,48,49,49,51,51],"right_children":[2,4,6,8,10,12,14,16,18,20,22,24,26,-1,28,30,32,34,36,38,40,42,44,-1,-1,46,48,50,52,54,56,58,60,62,64,66,68,70,72,74,76,78,80,82,84,-1,86,88,90,92,-1,94,-1,-1,-1,-1,-1,-1,-1,-1,-1,-1,-1,-1,-1,-1,-1,-1,-1,-1,-1,-1,-1,-1,-1,-1,-1,-1,-1,-1,-1,-1,-1,-1,-1,-1,-1,-1,-1,-1,-1,-1,-1,-1,-1],"split_conditions":[1.8527976E-3,-1.6320945E-1,-6.7634486E-2,1.6703367E-1,1.4823937E-1,-2.4310667E-2,-4.1326366E-2,1.360364E-1,8.740436E-3,1.7681563E-2,1.7779878E-1,-7.2688805E-3,9.557552E-2,-2.1630904E-1,-1.5575853E-3,-8.5574925E-2,-2.6860797E-1,-7.4884176E-2,-4.1796908E-2,1.0934634E-2,2.2343692E-1,1.1089474E-1,-2.551215E-1,-1.7027028E-1,3.974026E-1,1.8595792E-2,4.2699558E-1,1.18969135E-1,-1.3451043E-1,6.796836E-2,-9.5604E-2,4.1703835E-2,-1.1603718E-1,-1.4547443E-1,1.9341767E-1,-2.118592E-2,7.700214E-2,1.9537253E-2,9.6398875E-2,-8.0562085E-2,1.4576887E-1,3.1756908E-1,-1.4129248E-2,1.3141023E-1,-2.5761902E-1,-2.0117651E-1,-2.2646338E-1,-1.9818586E-1,8.163303E-2,1.6176528E-1,3.6734694E-1,-1.5528431E-2,-1.956522E-1,-2.0179181E-1,-1.093885E-1,3.7741938E-1,-1.836735E-1,-5.901641E-2,4.0212765E-1,1.1387754E-1,-1.702703E-1,-1.4145398E-2,2.6327506E-1,-3.0370042E-2,2.8916967E-1,-8.490568E-2,4.0824744E-1,-1.351894E-1,-2.5097616E-2,3.6700127E-1,1.2989691E-1,4.6511497E-3,2.0204082E-1,1.6437612E-1,-1.8208094E-1,-1.7094974E-1,2.6756757E-1,-1.086395E-1,3.122449E-1,-1.8679248E-1,3.5257733E-1,4.195489E-1,-6.206898E-2,2.7079645E-1,-7.411766E-2,4.114286E-1,-1.5517244E-1,3E-1,-1.7504722E-1,-1.7560977E-1,3.8769233E-1,-2.1210195E-1,-7.663455E-9,4.3319505E-1,-1.5517244E-1],"split_indices":[13,484,577,511,151,46,58,138,296,110,433,29,153,0,386,40,56,615,110,519,131,199,97,0,0,671,529,60,73,500,540,154,552,191,205,453,609,93,719,259,151,131,723,425,390,0,99,196,24,12,0,32,0,0,0,0,0,0,0,0,0,0,0,0,0,0,0,0,0,0,0,0,0,0,0,0,0,0,0,0,0,0,0,0,0,0,0,0,0,0,0,0,0,0,0],"split_type":[0,0,0,0,0,0,0,0,0,0,0,0,0,0,0,0,0,0,0,0,0,0,0,0,0,0,0,0,0,0,0,0,0,0,0,0,0,0,0,0,0,0,0,0,0,0,0,0,0,0,0,0,0,0,0,0,0,0,0,0,0,0,0,0,0,0,0,0,0,0,0,0,0,0,0,0,0,0,0,0,0,0,0,0,0,0,0,0,0,0,0,0,0,0,0],"sum_hessian":[4.1937773E3,2.8315554E3,1.3622222E3,1.9639999E3,8.675555E2,1.2804443E3,8.177777E1,7.7822217E2,1.1857777E3,5.0044443E2,3.6711108E2,1.0666666E1,1.2697777E3,2.4888887E1,5.6888885E1,6.791111E2,9.911111E1,6.306666E2,5.551111E2,3.5999997E2,1.4044444E2,2.933333E2,7.377777E1,3.111111E0,7.5555553E0,2.1333332E1,1.2484443E3,2.2222221E1,3.4666664E1,6.653333E2,1.3777777E1,2.0444443E1,7.8666664E1,1.24444435E2,5.062222E2,1.4666666E1,5.404444E2,1.4044444E2,2.1955554E2,7.8666664E1,6.1777775E1,2.7866666E2,1.4666666E1,1.5999999E1,5.7777775E1,8.444444E0,1.2888888E1,1.2386666E3,9.777777E0,1.7777777E1,4.444444E0,2.7999998E1,6.666666E0,2.2844443E2,4.3688885E2,9.333333E0,4.444444E0,5.7777777E0,1.4666666E1,2.6222221E1,5.2444443E1,5.5555553E1,6.8888885E1,4.7644443E2,2.9777777E1,4.8888884E0,9.777777E0,3.422222E2,1.9822221E2,8.755555E1,5.2888885E1,1.2799999E2,9.155555E1,6.0444443E1,1.8222221E1,5.8666664E1,3.111111E0,2.742222E2,4.444444E0,4.8888884E0,9.777777E0,1.3777777E1,2.222222E0,1.1555555E1,4.622222E1,1.0666666E1,2.222222E0,3.9999998E0,1.2346666E3,3.5555553E0,6.222222E0,1.6444443E1,1.3333333E0,2.5777777E1,2.222222E0],"tree_param":{"num_deleted":"0","num_feature":"768","num_nodes":"95","size_leaf_vector":"1"}},{"base_weights":[4.7169757E-1,4.092586E-1,6.245312E-1,3.515546E-1,6.105616E-1,4.9862146E-1,9.112782E-1,3.7326428E-1,-2.0532325E-1,7.6876545E-1,3.6200252E-1,3.7441736E-1,8.8870704E-1,-7.100596E-2,9.611374E-1,5.230961E-1,2.8922668E-1,6.8944097E-1,-4.285715E-1,-5.806452E-1,8.0213904E-1,-1.8011262E-1,5.195808E-1,6.860522E-1,2.0593688E-1,9.7686523E-1,-5.309735E-1,-5.5813956E-1,3.6734694E-1,-5.342466E-1,9.935505E-1,4.770039E-1,1.3658537E0,3.913927E-1,6.5201245E-2,-1.918033E-1,4.1284406E-1,-6.1351824E-1,3.5217392E-1,-7.663455E-9,-2.0000003E-1,9.359331E-1,4.7473782E-1,8.8799995E-1,-4.9640295E-1,3.345095E-1,1.1555555E0,1.2361809E0,4.5385146E-1,1.6987499E-2,6.460723E-1,1.0475616E0,-1.9870132E-1,1.2857142E-1,-2.0495051E-1,-2.0769234E-1,1.2857142E-1,-7.663455E-9,-1.918033E-1,2.7795523E-1,1.0704325E0,-1.5720525E-1,1.5328103E-1,-1.4400001E-1,4.3852693E-1,9.433319E-2,2.0609555E-1,2.348017E-3,3.12E-1,4.675324E-2,-2.1571712E-1,3.811035E-1,2.3889816E-1,8.70641E-2,4.2603552E-1,-1.7027028E-1,4.0824744E-1,1.1647058E-1,-2.1114372E-1,2.0713128E-1,1.779974E-2,4.1980833E-1,8.910891E-2,-9.729732E-2,3.954306E-1,-1.5597935E-2,2.3505156E-1,-7.030344E-2,1.103697E-1,3.0992484E-1,2.8301874E-2,-1.894737E-1,3.303162E-1,-6.33803E-2,3.6330277E-1,-1.8E-1,3.2825065E-1],"categories":[],"categories_nodes":[],"categories_segments":[],"categories_sizes":[],"default_left":[0,0,0,0,0,0,0,0,0,0,0,0,0,0,0,0,0,0,0,0,0,0,0,0,0,0,0,0,0,0,0,0,0,0,0,0,0,0,0,0,0,0,0,0,0,0,0,0,0,0,0,0,0,0,0,0,0,0,0,0,0,0,0,0,0,0,0,0,0,0,0,0,0,0,0,0,0,0,0,0,0,0,0,0,0,0,0,0,0,0,0,0,0,0,0,0,0],"id":1,"left_children":[1,3,5,7,9,11,13,15,17,19,21,23,25,27,29,31,33,35,37,39,41,43,45,47,49,51,53,55,-1,57,59,61,63,65,67,-1,-1,69,-1,-1,-1,71,73,75,77,79,81,83,85,87,89,91,-1,-1,-1,-1,-1,-1,-1,93,95,-1,-1,-1,-1,-1,-1,-1,-1,-1,-1,-1,-1,-1,-1,-1,-1,-1,-1,-1,-1,-1,-1,-1,-1,-1,-1,-1,-1,-1,-1,-1,-1,-1,-1,-1,-1],"loss_changes":[3.977423E1,3.4412567E1,4.3404236E1,2.8115234E1,2.5784088E1,4.0672302E1,1.816211E1,2.795993E1,1.780729E1,1.8664764E1,2.2275753E1,3.3654045E1,2.6008896E1,1.2533707E1,1.757605E1,3.0462967E1,3.2762505E1,1.7203165E1,2.1696934E1,5.16129E-1,1.6848679E1,2.0448065E1,2.3323608E1,2.823729E1,3.485294E1,2.2956818E1,2.1263723E0,2.1942244E0,0E0,4.5542336E-1,1.8658691E1,2.611702E1,7.9595566E0,2.2157944E1,2.5153517E1,0E0,0E0,5.317724E0,0E0,0E0,0E0,1.2024109E1,1.9920454E1,1.0331088E1,8.774592E0,1.5379652E1,9.003441E0,8.907425E0,2.673983E1,2.6045055E1,2.6783115E1,1.7272339E1,0E0,0E0,0E0,0E0,0E0,0E0,0E0,1.6130905E1,1.2978729E1,0E0,0E0,0E0,0E0,0E0,0E0,0E0,0E0,0E0,0E0,0E0,0E0,0E0,0E0,0E0,0E0,0E0,0E0,0E0,0E0,0E0,0E0,0E0,0E0,0E0,0E0,0E0,0E0,0E0,0E0,0E0,0E0,0E0,0E0,0E0,0E0],"parents":[2147483647,0,0,1,1,2,2,3,3,4,4,5,5,6,6,7,7,8,8,9,9,10,10,11,11,12,12,13,13,14,14,15,15,16,16,17,17,18,18,19,19,20,20,21,21,22,22,23,23,24,24,25,25,26,26,27,27,29,29,30,30,31,31,32,32,33,33,34,34,37,37,41,41,42,42,43,43,44,44,45,45,46,46,47,47,48,48,49,49,50,50,51,51,59,59,60,60],"right_children":[2,4,6,8,10,12,14,16,18,20,22,24,26,28,30,32,34,36,38,40,42,44,46,48,50,52,54,56,-1,58,60,62,64,66,68,-1,-1,70,-1,-1,-1,72,74,76,78,80,82,84,86,88,90,92,-1,-1,-1,-1,-1,-1,-1,94,96,-1,-1,-1,-1,-1,-1,-1,-1,-1,-1,-1,-1,-1,-1,-1,-1,-1,-1,-1,-1,-1,-1,-1,-1,-1,-1,-1,-1,-1,-1,-1,-1,-1,-1,-1,-1],"split_conditions":[6.046613E-3,-1.6610435E-1,2.9980652E-3,4.3726344E-2,1.3194019E-1,1.7615236E-1,-2.2533998E-1,-1.0088345E-2,1.6082607E-2,7.070176E-2,-1.3727279E-1,-8.060718E-3,7.7380806E-2,2.7215725E-1,-2.1085474E-1,-8.682859E-2,1.5542705E-1,-1.4016426E-1,8.507262E-2,2.1449761E-1,1.4513564E-1,3.896035E-2,2.1093029E-1,7.205913E-2,-1.538867E-1,2.2035904E-1,-1.6674775E-1,-1.3421229E-1,3.6734694E-1,1.0812795E-1,-4.45544E-2,-2.3933825E-1,-1.9161718E-1,-9.960292E-2,4.516807E-2,-1.918033E-1,4.1284406E-1,-1.7024877E-2,3.5217392E-1,-7.663455E-9,-2.0000003E-1,-1.182048E-1,1.0209261E-1,2.5222927E-2,-1.1816892E-1,5.989833E-3,4.0482793E-2,-1.7728639E-1,-1.0940514E-1,1.25256535E-2,-5.731852E-2,2.076747E-1,-1.9870132E-1,1.2857142E-1,-2.0495051E-1,-2.0769234E-1,1.2857142E-1,-7.663455E-9,-1.918033E-1,1.40232155E-2,8.953201E-2,-1.5720525E-1,1.5328103E-1,-1.4400001E-1,4.3852693E-1,9.433319E-2,2.0609555E-1,2.348017E-3,3.12E-1,4.675324E-2,-2.1571712E-1,3.811035E-1,2.3889816E-1,8.70641E-2,4.2603552E-1,-1.7027028E-1,4.0824744E-1,1.1647058E-1,-2.1114372E-1,2.0713128E-1,1.779974E-2,4.1980833E-1,8.910891E-2,-9.729732E-2,3.954306E-1,-1.5597935E-2,2.3505156E-1,-7.030344E-2,1.103697E-1,3.0992484E-1,2.8301874E-2,-1.894737E-1,3.303162E-1,-6.33803E-2,3.6330277E-1,-1.8E-1,3.2825065E-1],"split_indices":[13,751,69,767,425,337,411,720,354,301,515,318,393,707,143,126,345,223,162,3,299,520,581,392,455,198,109,40,0,6,402,228,0,463,55,0,0,407,0,0,0,553,497,490,398,741,519,179,474,483,453,66,0,0,0,0,0,0,0,170,433,0,0,0,0,0,0,0,0,0,0,0,0,0,0,0,0,0,0,0,0,0,0,0,0,0,0,0,0,0,0,0,0,0,0,0,0],"split_type":[0,0,0,0,0,0,0,0,0,0,0,0,0,0,0,0,0,0,0,0,0,0,0,0,0,0,0,0,0,0,0,0,0,0,0,0,0,0,0,0,0,0,0,0,0,0,0,0,0,0,0,0,0,0,0,0,0,0,0,0,0,0,0,0,0,0,0,0,0,0,0,0,0,0,0,0,0,0,0,0,0,0,0,0,0,0,0,0,0,0,0,0,0,0,0,0,0],"sum_hessian":[4.1937773E3,2.9799998E3,1.2137777E3,2.3182222E3,6.617777E2,8.453333E2,3.6844443E2,2.2315554E3,8.6666664E1,4.0311108E2,2.5866666E2,6.426666E2,2.0266666E2,1.7777777E1,3.5066666E2,7.9999994E2,1.4315554E3,1.6888887E1,6.977777E1,9.333333E0,3.9377774E2,5.8222218E1,2.0044443E2,2.2444443E2,4.182222E2,1.911111E2,1.1555555E1,1.3333332E1,4.444444E0,7.1111107E0,3.4355554E2,7.5999994E2,3.9999996E1,9.826666E2,4.4888885E2,5.7777777E0,1.1111111E1,6.3111107E1,6.666666E0,1.3333333E0,7.9999995E0,2.782222E2,1.1555555E2,1.2888888E1,4.5333332E1,1.5644443E2,4.3999996E1,6.533333E1,1.591111E2,2.933333E2,1.2488888E2,1.8355554E2,7.5555553E0,1.3333333E0,1.0222221E1,1.1999999E1,1.3333333E0,1.3333333E0,5.7777777E0,3.3777775E1,3.0977777E2,2.4444443E1,7.3555554E2,1.7777777E0,3.822222E1,7.813333E2,2.0133333E2,4.2488885E2,2.3999998E1,7.5555553E0,5.5555553E1,7.955555E1,1.9866666E2,9.777777E1,1.7777777E1,3.111111E0,9.777777E0,8.444444E0,3.6888885E1,6.755555E1,8.8888885E1,3.3777775E1,1.0222221E1,3.111111E0,6.2222218E1,6.3111107E1,9.599999E1,1.711111E2,1.2222221E2,7.2888885E1,5.1999996E1,5.333333E0,1.7822221E2,2.2666666E1,1.1111111E1,3.9999998E0,3.0577777E2],"tree_param":{"num_deleted":"0","num_feature":"768","num_nodes":"97","size_leaf_vector":"1"}},{"base_weights":[-2.3680243E-1,-3.9387247E-1,-6.9801785E-2,5.1968503E-1,-4.1192815E-1,-3.144355E-1,5.8397762E-2,1.077551E0,-4.5517248E-1,-3.4586686E-1,-5.962956E-1,-4.790221E-1,-1.3130642E-1,2.6109392E-2,9.388235E-1,-4.0000004E-1,1.3492823E0,-6.31579E-1,2.5714284E-1,6.687898E-1,-3.5708648E-1,-6.097415E-1,3.512195E-1,8.041237E-1,-5.162791E-1,4.3993756E-1,-2.8589585E-1,-2.951026E-1,1.0926825E-1,-2.0322584E-1,1.3548387E0,-1.6363637E-1,-7.663455E-9,4.2944163E-1,-7.663455E-9,-7.663455E-9,-2.0826449E-1,-1.918033E-1,4.114286E-1,-4.0466562E-1,-1.1673157E-1,-6.382714E-1,1.6216213E-1,3.9452055E-1,-1.6363637E-1,3.8399997E-1,-5.509811E-1,-2.7586213E-1,9.100257E-1,-3.4136552E-1,6.976744E-1,9.411765E-1,-3.7817377E-1,2.5814077E-1,-1.0998131E-1,-1.4400001E-1,4.3753847E-1,2.6129034E-1,-1.243909E-1,-8.665094E-2,1.0445151E-1,-8.695654E-2,-2.0652229E-1,2.146789E-1,-1.6941178E-1,2.7529413E-1,-1.836735E-1,-1.8387452E-1,-2.6259962E-2,-2.0281692E-1,3.7894738E-1,-1.972603E-1,3.7107694E-1,-1.8597789E-1,-5.4488532E-2,-1.836735E-1,4.044944E-1,4.1652894E-1,-1.7560977E-1,-1.8318588E-1,1.8343937E-2,1.2456391E-1,-4.927838E-3,-5.6299347E-2,2.1323077E-1],"categories":[],"categories_nodes":[],"categories_segments":[],"categories_sizes":[],"default_left":[0,0,0,0,0,0,0,0,0,0,0,0,0,0,0,0,0,0,0,0,0,0,0,0,0,0,0,0,0,0,0,0,0,0,0,0,0,0,0,0,0,0,0,0,0,0,0,0,0,0,0,0,0,0,0,0,0,0,0,0,0,0,0,0,0,0,0,0,0,0,0,0,0,0,0,0,0,0,0,0,0,0,0,0,0],"id":2,"left_children":[1,3,5,7,9,11,13,15,17,19,21,23,25,27,29,31,33,35,-1,37,39,41,-1,43,45,47,49,51,53,-1,55,-1,-1,-1,-1,-1,-1,-1,-1,57,59,61,63,-1,-1,65,67,69,71,73,75,77,79,81,83,-1,-1,-1,-1,-1,-1,-1,-1,-1,-1,-1,-1,-1,-1,-1,-1,-1,-1,-1,-1,-1,-1,-1,-1,-1,-1,-1,-1,-1,-1],"loss_changes":[1.1000485E2,3.5866913E1,6.3818985E1,2.3513023E1,2.5615753E1,2.1025475E1,3.794516E1,1.1469347E1,4.2710915E0,1.8034637E1,1.3968842E1,1.8013138E1,2.9493183E1,3.44754E1,3.266915E1,2.9090917E-1,2.575283E0,5.846019E-1,0E0,1.69108E1,1.764154E1,1.23112335E1,0E0,8.149233E0,1.1406425E1,2.4216528E1,1.4550621E1,2.7616844E1,3.3484627E1,0E0,7.903908E0,0E0,0E0,0E0,0E0,0E0,0E0,0E0,0E0,1.6778473E1,2.0663675E1,9.142105E0,8.6730585E0,0E0,0E0,7.945758E0,9.861702E0,1.8715267E1,2.2961739E1,1.096703E1,1.3041601E1,1.2419507E1,2.5510132E1,2.6347729E1,2.6607328E1,0E0,0E0,0E0,0E0,0E0,0E0,0E0,0E0,0E0,0E0,0E0,0E0,0E0,0E0,0E0,0E0,0E0,0E0,0E0,0E0,0E0,0E0,0E0,0E0,0E0,0E0,0E0,0E0,0E0,0E0],"parents":[2147483647,0,0,1,1,2,2,3,3,4,4,5,5,6,6,7,7,8,8,9,9,10,10,11,11,12,12,13,13,14,14,15,15,16,16,17,17,19,19,20,20,21,21,23,23,24,24,25,25,26,26,27,27,28,28,30,30,39,39,40,40,41,41,42,42,45,45,46,46,47,47,48,48,49,49,50,50,51,51,52,52,53,53,54,54],"right_children":[2,4,6,8,10,12,14,16,18,20,22,24,26,28,30,32,34,36,-1,38,40,42,-1,44,46,48,50,52,54,-1,56,-1,-1,-1,-1,-1,-1,-1,-1,58,60,62,64,-1,-1,66,68,70,72,74,76,78,80,82,84,-1,-1,-1,-1,-1,-1,-1,-1,-1,-1,-1,-1,-1,-1,-1,-1,-1,-1,-1,-1,-1,-1,-1,-1,-1,-1,-1,-1,-1,-1],"split_conditions":[-6.117731E-2,-1.5637594E-1,1.2878117E-1,1.2639321E-1,-1.008099E-1,-1.3265309E-1,3.3565597E-3,1.3800517E-1,2.3780862E-2,4.001913E-2,3.8480604E-1,-2.0459557E-1,-1.074571E-1,-2.3175767E-1,5.625818E-2,-9.357398E-2,2.0814005E-1,-1.2829792E-1,2.5714284E-1,2.1303946E-1,1.07276596E-1,8.490443E-2,3.512195E-1,3.458862E-2,-8.764442E-2,-1.2794234E-1,2.1386568E-1,3.3233967E-1,-2.2829705E-1,-2.0322584E-1,-2.2542661E-1,-1.6363637E-1,-7.663455E-9,4.2944163E-1,-7.663455E-9,-7.663455E-9,-2.0826449E-1,-1.918033E-1,4.114286E-1,-1.8332468E-1,-5.04657E-2,-1.8420652E-1,9.7334035E-2,3.9452055E-1,-1.6363637E-1,3.222265E-3,-6.2932804E-2,4.697822E-2,1.5049332E-2,-1.1345828E-1,1.1628932E-1,-1.16659954E-1,-7.058988E-2,-1.1647864E-1,1.270181E-1,-1.4400001E-1,4.3753847E-1,2.6129034E-1,-1.243909E-1,-8.665094E-2,1.0445151E-1,-8.695654E-2,-2.0652229E-1,2.146789E-1,-1.6941178E-1,2.7529413E-1,-1.836735E-1,-1.8387452E-1,-2.6259962E-2,-2.0281692E-1,3.7894738E-1,-1.972603E-1,3.7107694E-1,-1.8597789E-1,-5.4488532E-2,-1.836735E-1,4.044944E-1,4.1652894E-1,-1.7560977E-1,-1.8318588E-1,1.8343937E-2,1.2456391E-1,-4.927838E-3,-5.6299347E-2,2.1323077E-1],"split_indices":[734,642,370,188,356,143,540,395,18,12,489,15,401,751,319,0,5,9,0,211,685,745,0,4,641,180,442,311,507,0,1,0,0,0,0,0,0,0,0,21,427,700,712,0,0,592,436,396,669,436,87,0,239,356,320,0,0,0,0,0,0,0,0,0,0,0,0,0,0,0,0,0,0,0,0,0,0,0,0,0,0,0,0,0,0],"split_type":[0,0,0,0,0,0,0,0,0,0,0,0,0,0,0,0,0,0,0,0,0,0,0,0,0,0,0,0,0,0,0,0,0,0,0,0,0,0,0,0,0,0,0,0,0,0,0,0,0,0,0,0,0,0,0,0,0,0,0,0,0,0,0,0,0,0,0,0,0,0,0,0,0,0,0,0,0,0,0,0,0,0,0,0,0],"sum_hessian":[4.1937773E3,2.1604443E3,2.0333333E3,4.1333332E1,2.119111E3,6.986666E2,1.3346666E3,2.6222221E1,1.5111111E1,1.5622222E3,5.5688885E2,3.6711108E2,3.3155554E2,1.2884443E3,4.622222E1,3.9999998E0,2.2222221E1,1.3777777E1,1.3333333E0,1.6444443E1,1.5457777E3,5.533333E2,3.5555553E0,9.777777E0,3.573333E2,7.022222E1,2.613333E2,2.6444443E2,1.02399994E3,9.333333E0,3.6888885E1,2.6666665E0,1.3333333E0,2.0888887E1,1.3333333E0,1.3333333E0,1.2444444E1,5.7777777E0,1.0666666E1,1.2897777E3,2.5599998E2,5.337778E2,1.9555553E1,7.1111107E0,2.6666665E0,1.2888888E1,3.4444443E2,2.7999998E1,4.222222E1,2.4799998E2,1.3333332E1,1.5999999E1,2.4844443E2,6.097778E2,4.142222E2,1.7777777E0,3.511111E1,9.333333E0,1.2804443E3,1.871111E2,6.8888885E1,6.799999E1,4.6577774E2,1.1111111E1,8.444444E0,8.444444E0,4.444444E0,3.0355554E2,4.0888885E1,2.2666666E1,5.333333E0,7.1111107E0,3.511111E1,8.933333E1,1.5866666E2,4.444444E0,8.888888E0,1.2444444E1,3.5555553E0,1.6222221E2,8.622221E1,3.8755554E2,2.2222221E2,3.7911108E2,3.511111E1],"tree_param":{"num_deleted":"0","num_feature":"768","num_nodes":"85","size_leaf_vector":"1"}},{"base_weights":[-1.9002771E-1,-7.87542E-2,-4.2442545E-1,5.3305104E-2,-2.3420322E-1,-2.0966567E-1,-5.122531E-1,2.1487115E-1,-1.2517066E-1,2.2448339E-1,-3.021426E-1,-5.093552E-1,8.38948E-4,8.8937527E-1,-5.27148E-1,1.0668108E-2,4.1798052E-1,-1.5914187E-1,5.931784E-1,-1.4264329E-1,7.108777E-1,-3.5215193E-1,1.4939745E-1,2.864355E-1,-5.533788E-1,-1.126647E-1,1.1597893E0,3.7061733E-1,-1.4078552E-1,-5.438017E-1,6.232583E-1,-2.0238937E-1,2.4582416E-1,5.148176E-1,-2.2567734E-1,-2.9799545E-1,2.0738548E-2,9.0306216E-1,-1.8110041E-1,-6.6730005E-1,1.3540044E-1,9.53923E-1,-4.3381065E-1,3.483606E-1,-3.7862727E-1,1.1576325E0,-2.0474163E-3,6.4444184E-1,-6.02333E-1,6.509262E-1,-2.480791E-1,-1.2031685E-1,3.9294073E-1,-1.6932404E-1,-5.8383477E-1,1.0451319E0,-1.6005363E-1,2.4739492E-1,-8.8073224E-2,-1.6428307E-2,1.6125116E-1,-1.1376566E-1,1.7920905E-1,1.8158701E-1,-1.741888E-1,-1.059492E-1,1.6218203E-1,1.2985916E-1,-4.184015E-2,-1.5580477E-1,3.2466474E-1,-2.0924434E-1,1.2853214E-2,-5.5933494E-2,2.4840014E-1,-1.668939E-1,3.2037517E-1,2.6404753E-1,-1.9764909E-1,-7.6056704E-2,3.726579E-1,-1.5649924E-1,-7.6214E-2,-7.053266E-3,3.844338E-1,-6.275879E-2,1.942088E-1,-1.482317E-1,3.9856547E-1,-1.8860519E-1,2.4723502E-1,3.6882636E-1,5.8367634E-3,-9.690224E-2,4.03787E-1,9.5940575E-2,-1.8328898E-1,2.3312669E-1,-1.7804293E-1,2.4794391E-3,3.5793036E-1],"categories":[],"categories_nodes":[],"categories_segments":[],"categories_sizes":[],"default_left":[0,0,0,0,0,0,0,0,0,0,0,0,0,0,0,0,0,0,0,0,0,0,0,0,0,0,0,0,0,0,0,0,0,0,0,0,0,0,0,0,0,0,0,0,0,0,0,0,0,0,0,0,0,0,0,0,0,0,0,0,0,0,0,0,0,0,0,0,0,0,0,0,0,0,0,0,0,0,0,0,0,0,0,0,0,0,0,0,0,0,0,0,0,0,0,0,0,0,0,0,0],"id":3,"left_children":[1,3,5,7,9,11,13,15,17,19,21,23,25,27,29,31,33,35,37,39,41,43,45,-1,47,49,51,-1,-1,53,55,57,59,61,63,65,67,69,-1,71,73,75,77,79,81,83,85,87,89,91,93,-1,-1,95,97,99,-1,-1,-1,-1,-1,-1,-1,-1,-1,-1,-1,-1,-1,-1,-1,-1,-1,-1,-1,-1,-1,-1,-1,-1,-1,-1,-1,-1,-1,-1,-1,-1,-1,-1,-1,-1,-1,-1,-1,-1,-1,-1,-1,-1,-1],"loss_changes":[1.042164E2,5.5676422E1,2.41568E1,4.2325417E1,3.8886246E1,2.3662888E1,1.9515732E1,3.194345E1,1.7118084E1,2.8900024E1,2.4561981E1,1.0503666E1,2.9244602E1,5.2646775E0,1.764618E1,1.934562E1,2.4184853E1,1.6663101E1,1.2306556E1,1.3618798E1,1.9759693E1,1.8260185E1,1.6634462E1,0E0,9.235233E0,2.1099415E1,5.168598E0,0E0,0E0,1.32586975E1,7.0758896E0,1.9217216E1,1.6119831E1,2.5019775E1,1.5451101E1,1.7606243E1,1.9303913E1,7.0832653E0,0E0,7.219906E-1,1.38514185E1,1.0522594E1,4.3839297E0,1.9745693E1,1.6659668E1,2.1106472E0,1.3009292E1,5.6469355E0,5.9859962E0,1.121889E1,2.1063616E1,0E0,0E0,1.9088575E1,1.1018158E1,1.5436172E0,0E0,0E0,0E0,0E0,0E0,0E0,0E0,0E0,0E0,0E0,0E0,0E0,0E0,0E0,0E0,0E0,0E0,0E0,0E0,0E0,0E0,0E0,0E0,0E0,0E0,0E0,0E0,0E0,0E0,0E0,0E0,0E0,0E0,0E0,0E0,0E0,0E0,0E0,0E0,0E0,0E0,0E0,0E0,0E0,0E0],"parents":[2147483647,0,0,1,1,2,2,3,3,4,4,5,5,6,6,7,7,8,8,9,9,10,10,11,11,12,12,13,13,14,14,15,15,16,16,17,17,18,18,19,19,20,20,21,21,22,22,24,24,25,25,26,26,29,29,30,30,31,31,32,32,33,33,34,34,35,35,36,36,37,37,39,39,40,40,41,41,42,42,43,43,44,44,45,45,46,46,47,47,48,48,49,49,50,50,53,53,54,54,55,55],"right_children":[2,4,6,8,10,12,14,16,18,20,22,24,26,28,30,32,34,36,38,40,42,44,46,-1,48,50,52,-1,-1,54,56,58,60,62,64,66,68,70,-1,72,74,76,78,80,82,84,86,88,90,92,94,-1,-1,96,98,100,-1,-1,-1,-1,-1,-1,-1,-1,-1,-1,-1,-1,-1,-1,-1,-1,-1,-1,-1,-1,-1,-1,-1,-1,-1,-1,-1,-1,-1,-1,-1,-1,-1,-1,-1,-1,-1,-1,-1,-1,-1,-1,-1,-1,-1],"split_conditions":[2.01914E-4,-1.0925083E-1,-1.04325734E-1,-1.4657053E-1,-1.223943E-1,-1.01090066E-1,-2.3253149E-1,-1.2794638E-1,-4.5525767E-2,6.5930046E-2,6.465148E-2,3.1197626E-2,3.8028228E-1,-2.1251021E-1,3.5809584E-2,4.3517485E-2,2.6463786E-1,4.41103E-2,2.6610428E-1,-8.7549165E-2,5.149386E-3,-7.960147E-2,-4.3492462E-2,2.864355E-1,-1.797293E-1,7.2366536E-2,-4.4084888E-2,3.7061733E-1,-1.4078552E-1,-1.3674986E-1,1.338194E-1,1.4311739E-4,1.4952567E-1,8.608347E-2,-4.7495384E-2,1.2601665E-1,2.7240315E-2,1.1184128E-1,-1.8110041E-1,2.0802489E-1,2.2816636E-2,-1.2980744E-1,1.5258243E-2,1.8729183E-1,8.5935205E-2,-9.4382346E-2,2.5508644E-2,-1.0715443E-1,2.3255707E-1,3.0582394E-2,6.307168E-2,-1.2031685E-1,3.9294073E-1,1.579892E-1,3.518393E-2,-6.37653E-2,-1.6005363E-1,2.4739492E-1,-8.8073224E-2,-1.6428307E-2,1.6125116E-1,-1.1376566E-1,1.7920905E-1,1.8158701E-1,-1.741888E-1,-1.059492E-1,1.6218203E-1,1.2985916E-1,-4.184015E-2,-1.5580477E-1,3.2466474E-1,-2.0924434E-1,1.2853214E-2,-5.5933494E-2,2.4840014E-1,-1.668939E-1,3.2037517E-1,2.6404753E-1,-1.9764909E-1,-7.6056704E-2,3.726579E-1,-1.5649924E-1,-7.6214E-2,-7.053266E-3,3.844338E-1,-6.275879E-2,1.942088E-1,-1.482317E-1,3.9856547E-1,-1.8860519E-1,2.4723502E-1,3.6882636E-1,5.8367634E-3,-9.690224E-2,4.03787E-1,9.5940575E-2,-1.8328898E-1,2.3312669E-1,-1.7804293E-1,2.4794391E-3,3.5793036E-1],"split_indices":[13,552,351,143,266,642,470,254,204,295,267,188,532,2,388,134,131,134,423,83,92,318,352,0,254,222,10,0,0,227,337,293,5,285,681,295,736,601,0,118,564,664,98,5,149,83,486,8,567,448,323,0,0,675,600,236,0,0,0,0,0,0,0,0,0,0,0,0,0,0,0,0,0,0,0,0,0,0,0,0,0,0,0,0,0,0,0,0,0,0,0,0,0,0,0,0,0,0,0,0,0],"split_type":[0,0,0,0,0,0,0,0,0,0,0,0,0,0,0,0,0,0,0,0,0,0,0,0,0,0,0,0,0,0,0,0,0,0,0,0,0,0,0,0,0,0,0,0,0,0,0,0,0,0,0,0,0,0,0,0,0,0,0,0,0,0,0,0,0,0,0,0,0,0,0,0,0,0,0,0,0,0,0,0,0,0,0,0,0,0,0,0,0,0,0,0,0,0,0,0,0,0,0,0,0],"sum_hessian":[3.995963E3,2.710546E3,1.2854169E3,1.465884E3,1.244662E3,3.740824E2,9.113345E2,7.6928296E2,6.96601E2,1.6027505E2,1.084387E3,1.5375955E2,2.2032283E2,8.965429E0,9.02369E2,3.8413354E2,3.8514944E2,6.6588916E2,3.071188E1,9.173837E1,6.853668E1,9.764612E2,1.0792575E2,3.8843908E0,1.4987517E2,2.0149217E2,1.8830667E1,7.217936E0,1.7474936E0,8.9001215E2,1.23568735E1,2.0160947E2,1.8252406E2,3.3495612E2,5.019333E1,3.7543E2,2.9045917E2,2.459046E1,6.1214204E0,3.1291903E1,6.0446476E1,5.6670753E1,1.1865931E1,3.5117847E1,9.413433E2,1.3226592E1,9.469916E1,5.4071717E0,1.4446799E2,2.9776724E1,1.7171544E2,1.5043923E0,1.7326275E1,8.646152E1,8.0355066E2,9.125366E0,3.2315078E0,1.5784725E1,1.8582475E2,9.028981E1,9.223426E1,2.800846E1,3.0694763E2,1.4812039E1,3.538129E1,3.527995E2,2.2630497E1,8.082832E1,2.0963083E2,2.5383134E0,2.2052147E1,3.003332E1,1.2585824E0,4.176803E1,1.8678448E1,3.705031E0,5.296572E1,1.3092552E0,1.0556676E1,2.1414356E1,1.3703493E1,4.367281E2,5.0461523E2,1.3317938E0,1.1894798E1,7.2311226E1,2.2387936E1,2.1337543E0,3.2734175E0,1.4239676E2,2.0712402E0,1.5046023E1,1.47307E1,1.6476782E2,6.947617E0,4.1156067E1,4.5305454E1,5.0928726E0,7.9845776E2,1.2714903E0,7.8538756E0],"tree_param":{"num_deleted":"0","num_feature":"768","num_nodes":"101","size_leaf_vector":"1"}},{"base_weights":[3.4495887E-1,2.6895672E-1,4.2875743E-1,1.5247606E-1,3.607113E-1,4.4324553E-1,-4.88722E-1,1.07935116E-1,6.5499693E-1,1.9344635E-1,4.9826676E-1,4.9170604E-1,2.1434179E-1,2.7441016E-1,-7.087391E-1,5.5056978E-2,5.7043445E-1,8.9677715E-1,-2.148275E-1,1.4038707E-1,8.7224394E-1,-5.1349133E-1,5.280266E-1,2.9982638E-1,5.566496E-1,7.4210566E-1,1.10637456E-1,-2.2293298E-1,5.9580123E-3,2.5953677E-1,-8.5215695E-2,8.014057E-1,-1.4382195E-1,9.999557E-1,-1.8913844E-1,-2.1005583E-1,5.8955216E-1,1.9795017E-1,-4.9865705E-1,1.0109594E0,-1.6699487E-1,2.0551133E-1,-2.2268228E-1,6.641374E-1,3.0274904E-1,-8.526977E-2,4.419863E-1,1.2896675E-1,5.9818745E-1,-2.2922516E-1,8.912728E-1,-4.2214856E-1,2.1960016E-1,-7.0454413E-3,1.330327E-1,-6.706689E-2,5.78976E-2,3.3950308E-1,9.7162046E-2,-1.4321622E-1,2.7180815E-1,3.443743E-1,-8.635331E-2,-9.1898404E-2,3.180187E-1,3.325933E-1,4.820169E-2,2.4774976E-1,-2.0301268E-1,-6.6146754E-2,3.4663528E-1,2.793678E-1,1.4813499E-1,-1.3354729E-1,1.2093992E-1,2.2318578E-1,-8.44995E-2,8.25557E-3,1.7107412E-1,-8.616801E-2,1.6401625E-1,1.8595347E-1,-3.2712024E-2,-1.9579256E-1,1.9880491E-1,3.074351E-1,-1.2982333E-1,-1.7146689E-1,2.9700235E-1,-1.3818385E-2,1.4094928E-1],"categories":[],"categories_nodes":[],"categories_segments":[],"categories_sizes":[],"default_left":[0,0,0,0,0,0,0,0,0,0,0,0,0,0,0,0,0,0,0,0,0,0,0,0,0,0,0,0,0,0,0,0,0,0,0,0,0,0,0,0,0,0,0,0,0,0,0,0,0,0,0,0,0,0,0,0,0,0,0,0,0,0,0,0,0,0,0,0,0,0,0,0,0,0,0,0,0,0,0,0,0,0,0,0,0,0,0,0,0,0,0],"id":4,"left_children":[1,3,5,7,9,11,13,15,17,19,21,23,25,-1,27,29,31,33,35,37,39,41,43,45,47,49,51,-1,-1,53,55,57,59,61,-1,-1,63,65,67,69,-1,-1,-1,71,73,75,77,79,81,83,85,87,89,-1,-1,-1,-1,-1,-1,-1,-1,-1,-1,-1,-1,-1,-1,-1,-1,-1,-1,-1,-1,-1,-1,-1,-1,-1,-1,-1,-1,-1,-1,-1,-1,-1,-1,-1,-1,-1,-1],"loss_changes":[2.8008362E1,2.4722229E1,2.8110992E1,2.283238E1,2.9723633E1,2.2816833E1,1.0868281E1,2.2985039E1,1.7672031E1,2.1001389E1,2.1665787E1,2.1074646E1,1.977502E1,0E0,7.453985E-1,2.4278658E1,1.6027563E1,1.0909176E1,7.7855334E0,2.0153164E1,8.952858E0,6.2146654E0,2.0979095E1,2.3753994E1,2.2526733E1,8.811989E0,1.7764416E1,0E0,0E0,1.7932858E1,1.9377E1,1.1152561E1,8.983167E0,1.20464325E1,0E0,0E0,3.549174E0,1.6824791E1,1.1249836E1,7.1833076E0,0E0,0E0,0E0,1.9093674E1,1.9849535E1,1.9368156E1,1.6813183E1,1.9962587E1,1.7826813E1,3.7196188E0,9.583221E0,1.1542815E1,1.6865204E1,0E0,0E0,0E0,0E0,0E0,0E0,0E0,0E0,0E0,0E0,0E0,0E0,0E0,0E0,0E0,0E0,0E0,0E0,0E0,0E0,0E0,0E0,0E0,0E0,0E0,0E0,0E0,0E0,0E0,0E0,0E0,0E0,0E0,0E0,0E0,0E0,0E0,0E0],"parents":[2147483647,0,0,1,1,2,2,3,3,4,4,5,5,6,6,7,7,8,8,9,9,10,10,11,11,12,12,14,14,15,15,16,16,17,17,18,18,19,19,20,20,21,21,22,22,23,23,24,24,25,25,26,26,29,29,30,30,31,31,32,32,33,33,36,36,37,37,38,38,39,39,43,43,44,44,45,45,46,46,47,47,48,48,49,49,50,50,51,51,52,52],"right_children":[2,4,6,8,10,12,14,16,18,20,22,24,26,-1,28,30,32,34,36,38,40,42,44,46,48,50,52,-1,-1,54,56,58,60,62,-1,-1,64,66,68,70,-1,-1,-1,72,74,76,78,80,82,84,86,88,90,-1,-1,-1,-1,-1,-1,-1,-1,-1,-1,-1,-1,-1,-1,-1,-1,-1,-1,-1,-1,-1,-1,-1,-1,-1,-1,-1,-1,-1,-1,-1,-1,-1,-1,-1,-1,-1,-1],"split_conditions":[-1.2807962E-2,-2.1867491E-3,4.0756106E-1,-4.3302983E-2,-1.0633892E-1,3.061067E-2,-2.0274822E-2,6.911832E-2,-3.0120492E-2,4.479468E-2,8.283304E-2,-1.5842625E-1,-1.32521E-1,2.7441016E-1,1.4965823E-1,1.07472055E-1,-3.101198E-1,6.836578E-2,3.1698655E-2,9.605223E-2,7.8385405E-2,-1.1000557E-1,7.754634E-2,2.7316657E-1,-4.094117E-2,9.9575184E-2,-2.5997175E-2,-2.2293298E-1,5.9580123E-3,8.6105585E-2,3.5181932E-2,1.6615638E-1,-2.308109E-1,1.6672961E-1,-1.8913844E-1,-2.1005583E-1,-4.2458482E-2,-3.540311E-2,9.9908605E-2,9.781768E-2,-1.6699487E-1,2.0551133E-1,-2.2268228E-1,1.6638263E-1,-1.3380626E-1,-2.3433185E-1,-8.2438394E-2,-1.9734805E-2,-5.3477425E-2,9.155467E-2,-1.05487004E-1,-3.2906834E-2,-7.50433E-2,-7.0454413E-3,1.330327E-1,-6.706689E-2,5.78976E-2,3.3950308E-1,9.7162046E-2,-1.4321622E-1,2.7180815E-1,3.443743E-1,-8.635331E-2,-9.1898404E-2,3.180187E-1,3.325933E-1,4.820169E-2,2.4774976E-1,-2.0301268E-1,-6.6146754E-2,3.4663528E-1,2.793678E-1,1.4813499E-1,-1.3354729E-1,1.2093992E-1,2.2318578E-1,-8.44995E-2,8.25557E-3,1.7107412E-1,-8.616801E-2,1.6401625E-1,1.8595347E-1,-3.2712024E-2,-1.9579256E-1,1.9880491E-1,3.074351E-1,-1.2982333E-1,-1.7146689E-1,2.9700235E-1,-1.3818385E-2,1.4094928E-1],"split_indices":[55,563,529,175,552,720,658,52,557,13,5,700,0,0,719,485,521,755,140,403,98,527,199,489,402,450,69,0,0,719,276,368,725,12,0,0,525,44,319,272,0,0,0,766,706,288,401,163,590,217,470,706,578,0,0,0,0,0,0,0,0,0,0,0,0,0,0,0,0,0,0,0,0,0,0,0,0,0,0,0,0,0,0,0,0,0,0,0,0,0,0],"split_type":[0,0,0,0,0,0,0,0,0,0,0,0,0,0,0,0,0,0,0,0,0,0,0,0,0,0,0,0,0,0,0,0,0,0,0,0,0,0,0,0,0,0,0,0,0,0,0,0,0,0,0,0,0,0,0,0,0,0,0,0,0,0,0,0,0,0,0,0,0,0,0,0,0,0,0,0,0,0,0,0,0,0,0,0,0,0,0,0,0,0,0],"sum_hessian":[4.4148086E3,2.3173074E3,2.0975015E3,1.0222467E3,1.2950605E3,2.0654033E3,3.2098316E1,9.401328E2,8.211389E1,5.8550433E2,7.095563E2,1.7035928E3,3.618105E2,3.9222252E0,2.817609E1,8.446787E2,9.545415E1,6.4229416E1,1.7884478E1,5.4417487E2,4.1329464E1,1.9810055E1,6.897462E2,4.3221237E2,1.2713804E3,5.8408184E1,3.034023E2,2.688778E1,1.2883124E0,3.4333643E2,5.0134225E2,7.203723E1,2.3416912E1,6.0488155E1,3.7412608E0,1.1234918E1,6.649559E0,4.9984097E2,4.4333874E1,3.7938885E1,3.3905792E0,2.855681E0,1.6954374E1,4.2875052E2,2.609957E2,1.16641914E2,3.1557047E2,1.1291243E2,1.1584679E3,7.7041826E0,5.0704E1,5.1026745E1,2.5237555E2,1.3557123E2,2.0776518E2,3.349718E2,1.6637047E2,4.1774963E1,3.026227E1,1.8184488E1,5.232424E0,5.435213E1,6.136026E0,2.4099023E0,4.239657E0,1.8525488E1,4.813155E2,4.8224616E0,3.9511414E1,3.9288414E0,3.4010044E1,1.6522977E2,2.6352075E2,3.047896E1,2.3051674E2,2.1801847E1,9.4840065E1,7.486449E1,2.4070596E2,5.671838E1,5.619405E1,1.1241661E3,3.430174E1,5.406033E0,2.2981496E0,4.626477E1,4.439229E0,4.6682903E1,4.343844E0,1.2280917E2,1.2956638E2],"tree_param":{"num_deleted":"0","num_feature":"768","num_nodes":"91","size_leaf_vector":"1"}},{"base_weights":[-1.9102833E-1,-3.3211467E-1,-4.7366325E-2,-2.2037522E-1,-4.5032516E-1,-2.6187867E-1,5.920852E-2,6.731374E-1,-2.4974094E-1,-1.2435276E-1,-4.9975863E-1,-4.153132E-1,-9.823471E-2,-2.5990114E-1,1.2405626E-1,-4.7769278E-1,9.3849E-1,-9.218875E-2,-3.4230137E-1,-3.4902945E-1,5.889082E-1,3.482515E-1,-5.093447E-1,6.3768244E-1,-4.5014092E-1,3.621181E-1,-2.3183243E-1,-5.0720906E-1,1.533501E-1,2.9933348E-1,-7.303441E-2,3.1060325E-3,-1.7713982E-1,1.0692246E0,-1.4067599E-1,-1.3605057E-1,1.107008E0,4.9491897E-1,-3.717481E-1,3.522815E-1,-4.1740194E-1,-1.8068671E-1,8.5959524E-1,-2.5500038E-1,-5.515953E-1,2.9632443E-1,-1.4423695E-1,-5.647776E-1,-1.6392082E-1,-2.380962E-1,7.118919E-1,-2.9052466E-1,5.6544554E-1,8.044275E-1,-5.835782E-1,7.195884E-1,-4.1626588E-1,4.6504086E-1,1.8458305E-2,-1.14224285E-1,9.781896E-1,3.3028013E-1,9.299025E-2,-5.6715395E-2,2.4381645E-1,4.082412E-1,-1.3062163E-1,3.3948413E-1,-1.8431966E-1,-1.2701812E-1,9.40513E-4,1.4292821E-1,-1.5977794E-1,3.8871172E-1,3.989543E-2,8.503302E-2,-1.2715651E-1,-1.6851065E-1,3.4974557E-1,-1.7901193E-1,2.3291774E-1,2.6365006E-1,-9.843961E-2,-1.8492377E-1,2.9273978E-1,2.9758865E-1,-1.3865532E-1,-2.3900451E-2,-1.700277E-1,-1.7953482E-1,3.4188956E-1,3.5881248E-1,-1.3364391E-1,3.1770128E-1,-1.9158475E-1,-1.6501066E-1,3.1590244E-1,2.168062E-1,-2.112918E-1,1.9126683E-1,-1.5802126E-2,7.938056E-2,-1.1854437E-1,9.870095E-2,-6.0826547E-2,-1.5779072E-1,3.8013098E-1],"categories":[],"categories_nodes":[],"categories_segments":[],"categories_sizes":[],"default_left":[0,0,0,0,0,0,0,0,0,0,0,0,0,0,0,0,0,0,0,0,0,0,0,0,0,0,0,0,0,0,0,0,0,0,0,0,0,0,0,0,0,0,0,0,0,0,0,0,0,0,0,0,0,0,0,0,0,0,0,0,0,0,0,0,0,0,0,0,0,0,0,0,0,0,0,0,0,0,0,0,0,0,0,0,0,0,0,0,0,0,0,0,0,0,0,0,0,0,0,0,0,0,0,0,0,0,0],"id":5,"left_children":[1,3,5,7,9,11,13,15,17,19,21,23,25,27,29,31,33,35,37,39,41,-1,43,45,47,49,51,53,55,57,59,-1,-1,61,-1,63,65,67,69,-1,71,-1,73,75,77,-1,-1,79,81,83,85,87,89,91,93,95,97,99,101,103,105,-1,-1,-1,-1,-1,-1,-1,-1,-1,-1,-1,-1,-1,-1,-1,-1,-1,-1,-1,-1,-1,-1,-1,-1,-1,-1,-1,-1,-1,-1,-1,-1,-1,-1,-1,-1,-1,-1,-1,-1,-1,-1,-1,-1,-1,-1],"loss_changes":[8.10195E1,2.6542007E1,4.5329613E1,2.7424957E1,1.5715515E1,1.6482742E1,2.7451645E1,1.0624984E1,1.4646046E1,2.108062E1,1.4119949E1,1.2731281E1,1.9749619E1,2.2981907E1,3.808797E1,3.862574E-1,5.546257E0,1.9814295E1,1.5805313E1,1.0872769E1,1.0699076E1,0E0,8.947235E0,4.890529E0,1.0703918E1,1.5350897E1,1.1789914E1,1.4536858E1,2.7609783E1,2.7145931E1,2.2605307E1,0E0,0E0,2.700882E-1,0E0,1.833397E1,5.799135E0,1.6204166E1,1.1863487E1,0E0,1.0152739E1,0E0,8.111349E0,1.1242155E1,1.3227966E1,0E0,0E0,1.0506668E1,1.6642704E1,1.3172735E1,1.5564333E1,1.3471848E1,1.22933655E1,4.5208206E0,1.27262E1,1.8709377E1,1.4564595E1,3.2802902E1,2.2250109E1,1.971747E1,9.224016E0,0E0,0E0,0E0,0E0,0E0,0E0,0E0,0E0,0E0,0E0,0E0,0E0,0E0,0E0,0E0,0E0,0E0,0E0,0E0,0E0,0E0,0E0,0E0,0E0,0E0,0E0,0E0,0E0,0E0,0E0,0E0,0E0,0E0,0E0,0E0,0E0,0E0,0E0,0E0,0E0,0E0,0E0,0E0,0E0,0E0,0E0],"parents":[2147483647,0,0,1,1,2,2,3,3,4,4,5,5,6,6,7,7,8,8,9,9,10,10,11,11,12,12,13,13,14,14,15,15,16,16,17,17,18,18,19,19,20,20,22,22,23,23,24,24,25,25,26,26,27,27,28,28,29,29,30,30,33,33,35,35,36,36,37,37,38,38,40,40,42,42,43,43,44,44,47,47,48,48,49,49,50,50,51,51,52,52,53,53,54,54,55,55,56,56,57,57,58,58,59,59,60,60],"right_children":[2,4,6,8,10,12,14,16,18,20,22,24,26,28,30,32,34,36,38,40,42,-1,44,46,48,50,52,54,56,58,60,-1,-1,62,-1,64,66,68,70,-1,72,-1,74,76,78,-1,-1,80,82,84,86,88,90,92,94,96,98,100,102,104,106,-1,-1,-1,-1,-1,-1,-1,-1,-1,-1,-1,-1,-1,-1,-1,-1,-1,-1,-1,-1,-1,-1,-1,-1,-1,-1,-1,-1,-1,-1,-1,-1,-1,-1,-1,-1,-1,-1,-1,-1,-1,-1,-1,-1,-1,-1],"split_conditions":[-6.117731E-2,-1.897077E-1,1.2878117E-1,-1.5637594E-1,2.65074E-1,-1.3265309E-1,-1.01900026E-1,1.0120851E-1,-3.6372855E-2,1.0454581E-2,-2.5076336E-1,-2.0459557E-1,-1.074571E-1,-1.8358174E-1,3.728418E-2,-2.4903089E-2,2.9557443E-1,-2.4786845E-2,-1.2053969E-1,-2.0011078E-1,-8.067058E-2,3.482515E-1,-6.799475E-2,3.458862E-2,9.216619E-2,-1.2794234E-1,8.6926155E-2,1.5813302E-1,1.6637108E-1,1.498717E-2,-4.0799696E-2,3.1060325E-3,-1.7713982E-1,3.5432354E-2,-1.4067599E-1,-3.6908932E-2,1.0866109E-1,-1.3753709E-1,1.2939234E-1,3.522815E-1,6.413956E-2,-1.8068671E-1,-1.3156712E-1,5.3510614E-2,-3.9282843E-2,2.9632443E-1,-1.4423695E-1,-5.764402E-2,2.7716886E-2,4.697822E-2,-9.364825E-2,5.4297063E-2,-1.02748536E-1,1.7964637E-1,-6.262477E-2,-2.7483755E-1,4.7702283E-2,1.0757387E-1,1.4266895E-1,2.7419938E-2,-3.3721203E-1,3.3028013E-1,9.299025E-2,-5.6715395E-2,2.4381645E-1,4.082412E-1,-1.3062163E-1,3.3948413E-1,-1.8431966E-1,-1.2701812E-1,9.40513E-4,1.4292821E-1,-1.5977794E-1,3.8871172E-1,3.989543E-2,8.503302E-2,-1.2715651E-1,-1.6851065E-1,3.4974557E-1,-1.7901193E-1,2.3291774E-1,2.6365006E-1,-9.843961E-2,-1.8492377E-1,2.9273978E-1,2.9758865E-1,-1.3865532E-1,-2.3900451E-2,-1.700277E-1,-1.7953482E-1,3.4188956E-1,3.5881248E-1,-1.3364391E-1,3.1770128E-1,-1.9158475E-1,-1.6501066E-1,3.1590244E-1,2.168062E-1,-2.112918E-1,1.9126683E-1,-1.5802126E-2,7.938056E-2,-1.1854437E-1,9.870095E-2,-6.0826547E-2,-1.5779072E-1,3.8013098E-1],"split_indices":[734,472,370,642,628,143,92,405,679,597,26,15,401,603,20,58,67,398,492,51,578,0,641,4,623,180,612,216,315,483,114,0,0,458,0,242,24,586,607,0,385,0,200,719,443,0,0,132,130,396,249,657,196,5,184,253,653,165,376,520,127,0,0,0,0,0,0,0,0,0,0,0,0,0,0,0,0,0,0,0,0,0,0,0,0,0,0,0,0,0,0,0,0,0,0,0,0,0,0,0,0,0,0,0,0,0,0],"split_type":[0,0,0,0,0,0,0,0,0,0,0,0,0,0,0,0,0,0,0,0,0,0,0,0,0,0,0,0,0,0,0,0,0,0,0,0,0,0,0,0,0,0,0,0,0,0,0,0,0,0,0,0,0,0,0,0,0,0,0,0,0,0,0,0,0,0,0,0,0,0,0,0,0,0,0,0,0,0,0,0,0,0,0,0,0,0,0,0,0,0,0,0,0,0,0,0,0,0,0,0,0,0,0,0,0,0,0],"sum_hessian":[3.9970393E3,2.0159352E3,1.9811041E3,1.0378054E3,9.7812976E2,6.5708185E2,1.3240223E3,3.2325096E1,1.00548035E3,1.2926315E2,8.4886664E2,3.3832568E2,3.1875613E2,2.2311015E2,1.1009121E3,5.906869E0,2.6418228E1,3.728418E2,6.3263855E2,9.8687355E1,3.057579E1,4.1828046E0,8.4468384E2,1.0277636E1,3.2804803E2,7.131329E1,2.4744284E2,1.3943732E2,8.3672844E1,5.824274E2,5.184847E2,1.2791804E0,4.6276884E0,2.4392675E1,2.025553E0,3.605412E2,1.2300605E1,2.0958052E1,6.116805E2,3.5444455E0,9.5142914E1,5.4346766E0,2.5141113E1,1.2132919E2,7.233546E2,7.9167013E0,2.3609345E0,2.3353824E2,9.450981E1,2.6374224E1,4.493907E1,2.3106819E2,1.6374657E1,7.147418E0,1.322899E2,4.1828796E1,4.184405E1,3.6590152E2,2.165259E2,4.997928E2,1.8691925E1,2.2982822E1,1.4098512E0,3.4222446E2,1.831676E1,1.0663693E1,1.6369108E0,1.33027935E1,7.6552587E0,5.3750226E2,7.4178246E1,1.0503643E1,8.463927E1,1.5221795E1,9.919318E0,2.880313E1,9.252606E1,7.197916E2,3.5629892E0,2.2864992E2,4.888312E0,1.2266255E1,8.224355E1,2.048285E1,5.8913746E0,3.6408993E1,8.530079E0,1.3177187E2,9.929631E1,5.395513E0,1.0979144E1,5.475089E0,1.6723292E0,3.697496E0,1.2859239E2,8.564912E0,3.326388E1,8.141677E0,3.3702374E1,2.742749E2,9.1626625E1,1.3596892E2,8.0556984E1,8.2756805E1,4.1703598E2,2.8795805E0,1.5812344E1],"tree_param":{"num_deleted":"0","num_feature":"768","num_nodes":"107","size_leaf_vector":"1"}},{"base_weights":[-1.5445969E-1,-6.1401285E-2,-3.7714657E-1,-1.9272153E-1,7.296729E-2,-3.84566E-2,-4.299212E-1,9.803471E-2,-2.5750023E-1,-6.54255E-2,2.92826E-1,-2.1760266E-1,6.6434234E-1,-4.6382514E-1,-3.8462225E-3,5.110965E-1,-1.1757895E-1,-1.2953801E-1,-4.1727614E-1,-2.537081E-1,8.7363064E-2,1.412124E-1,8.025825E-1,9.5591897E-1,-3.031194E-1,-1.9138242E-1,1.0250561E0,-4.7648737E-1,6.874296E-1,8.3581144E-1,-2.1383749E-1,-2.9860163E-1,7.7315915E-1,1.158924E0,-2.0651823E-1,-2.0454417E-1,2.849451E-1,-4.8110157E-1,2.4884738E-1,-2.9469287E-1,7.8047407E-1,-1.9646482E-1,2.3243006E-1,3.6252022E-1,-2.6773134E-1,-5.296049E-1,8.779639E-1,7.953653E-2,3.1783405E-1,-5.521505E-1,2.3840781E-2,1.9968729E-1,-1.680163E-1,-1.18111186E-1,3.478111E-1,-4.853046E-1,7.1756124E-1,-1.4921542E-1,3.8857695E-1,3.743861E-1,-1.483533E-1,5.9451467E-1,-5.0412333E-1,-1.7087187E-1,2.6632088E-1,-1.3066725E-1,2.6801524E-1,1.5199287E-1,3.9456442E-1,-1.0972357E-1,1.16916716E-1,1.4386827E-1,-7.2733715E-2,-8.135128E-3,2.371764E-1,1.1527661E-1,-1.566027E-1,-1.153974E-1,2.3176269E-1,-1.0722303E-1,6.6870555E-2,3.935546E-1,-1.6776367E-1,2.953127E-1,-7.310116E-2,9.479233E-2,-1.11101806E-1,1.9501732E-1,2.4699561E-2,-1.2531392E-1,5.8386516E-2,6.3094585E-3,-1.9777356E-1,2.831456E-1,-1.3152127E-1,-1.8761119E-1,1.3861282E-1,2.5734034E-1,-9.1659464E-2,-1.05135925E-1,-1.7044887E-1,-1.4328696E-1,4.3045238E-1,2.891921E-1,-1.0786004E-1,2.2778066E-1,-1.8150872E-1],"categories":[],"categories_nodes":[],"categories_segments":[],"categories_sizes":[],"default_left":[0,0,0,0,0,0,0,0,0,0,0,0,0,0,0,0,0,0,0,0,0,0,0,0,0,0,0,0,0,0,0,0,0,0,0,0,0,0,0,0,0,0,0,0,0,0,0,0,0,0,0,0,0,0,0,0,0,0,0,0,0,0,0,0,0,0,0,0,0,0,0,0,0,0,0,0,0,0,0,0,0,0,0,0,0,0,0,0,0,0,0,0,0,0,0,0,0,0,0,0,0,0,0,0,0,0,0],"id":6,"left_children":[1,3,5,7,9,11,13,15,17,19,21,23,25,27,29,31,33,35,37,39,41,43,45,47,49,51,53,55,57,59,61,63,65,67,69,71,73,75,77,79,81,83,85,87,89,91,93,-1,-1,95,97,-1,-1,-1,-1,99,101,-1,-1,-1,-1,103,105,-1,-1,-1,-1,-1,-1,-1,-1,-1,-1,-1,-1,-1,-1,-1,-1,-1,-1,-1,-1,-1,-1,-1,-1,-1,-1,-1,-1,-1,-1,-1,-1,-1,-1,-1,-1,-1,-1,-1,-1,-1,-1,-1,-1],"loss_changes":[7.861188E1,4.72581E1,1.9969986E1,2.553413E1,4.0306732E1,1.9262148E1,1.3971909E1,2.2101751E1,2.259645E1,2.3421703E1,3.9432007E1,1.2508366E1,9.79278E0,1.33892975E1,1.292812E1,1.8281271E1,1.8792706E1,1.9228422E1,2.1047394E1,1.5685282E1,1.8564514E1,3.5899063E1,1.2222778E1,3.2776022E-1,9.315157E0,3.551877E0,4.6541195E0,9.685287E0,7.9590764E0,8.660176E0,1.4059396E1,7.4240093E0,9.768658E0,4.3423843E-1,1.4727327E1,1.3669676E1,1.49967785E1,1.611393E1,1.4794969E1,1.1488802E1,1.0823539E1,8.75003E0,1.5128742E1,2.066026E1,9.753747E0,5.0599694E-1,1.00527115E1,0E0,0E0,5.107706E0,1.4092836E1,0E0,0E0,0E0,0E0,9.644394E0,6.604268E0,0E0,0E0,0E0,0E0,5.9695435E0,6.02861E0,0E0,0E0,0E0,0E0,0E0,0E0,0E0,0E0,0E0,0E0,0E0,0E0,0E0,0E0,0E0,0E0,0E0,0E0,0E0,0E0,0E0,0E0,0E0,0E0,0E0,0E0,0E0,0E0,0E0,0E0,0E0,0E0,0E0,0E0,0E0,0E0,0E0,0E0,0E0,0E0,0E0,0E0,0E0,0E0],"parents":[2147483647,0,0,1,1,2,2,3,3,4,4,5,5,6,6,7,7,8,8,9,9,10,10,11,11,12,12,13,13,14,14,15,15,16,16,17,17,18,18,19,19,20,20,21,21,22,22,23,23,24,24,25,25,26,26,27,27,28,28,29,29,30,30,31,31,32,32,33,33,34,34,35,35,36,36,37,37,38,38,39,39,40,40,41,41,42,42,43,43,44,44,45,45,46,46,49,49,50,50,55,55,56,56,61,61,62,62],"right_children":[2,4,6,8,10,12,14,16,18,20,22,24,26,28,30,32,34,36,38,40,42,44,46,48,50,52,54,56,58,60,62,64,66,68,70,72,74,76,78,80,82,84,86,88,90,92,94,-1,-1,96,98,-1,-1,-1,-1,100,102,-1,-1,-1,-1,104,106,-1,-1,-1,-1,-1,-1,-1,-1,-1,-1,-1,-1,-1,-1,-1,-1,-1,-1,-1,-1,-1,-1,-1,-1,-1,-1,-1,-1,-1,-1,-1,-1,-1,-1,-1,-1,-1,-1,-1,-1,-1,-1,-1,-1],"split_conditions":[1.8527976E-3,-1.8079656E-1,-3.1034437E-1,-1.3644853E-1,-2.4755698E-2,4.780472E-2,1.2826055E-2,-1.6861323E-2,-1.1360443E-1,-2.326743E-1,1.5669823E-1,-1.3690498E-2,-1.2042497E-1,5.396375E-2,1.5897285E-2,-2.3913063E-1,-2.0734167E-1,2.8723973E-1,1.868163E-1,1.093311E-1,8.797903E-2,-8.379924E-2,-3.697123E-2,1.1377354E-1,7.7733114E-2,-2.0374505E-1,1.7213263E-1,-1.4264014E-1,1.8329318E-3,-1.2978788E-1,1.5665564E-1,7.6423574E-5,6.404239E-2,-3.3134397E-2,-9.133838E-3,9.179975E-2,6.395373E-2,-1.7623906E-1,1.0064575E-1,9.750174E-2,1.2834474E-2,8.320145E-2,-1.1553635E-2,-1.6959372E-3,8.7398835E-2,-9.4414085E-2,1.292238E-1,7.953653E-2,3.1783405E-1,-1.430679E-1,-5.4543737E-2,1.9968729E-1,-1.680163E-1,-1.18111186E-1,3.478111E-1,-1.0027287E-1,-1.24295026E-1,-1.4921542E-1,3.8857695E-1,3.743861E-1,-1.483533E-1,2.2336137E-2,-2.1612015E-1,-1.7087187E-1,2.6632088E-1,-1.3066725E-1,2.6801524E-1,1.5199287E-1,3.9456442E-1,-1.0972357E-1,1.16916716E-1,1.4386827E-1,-7.2733715E-2,-8.135128E-3,2.371764E-1,1.1527661E-1,-1.566027E-1,-1.153974E-1,2.3176269E-1,-1.0722303E-1,6.6870555E-2,3.935546E-1,-1.6776367E-1,2.953127E-1,-7.310116E-2,9.479233E-2,-1.11101806E-1,1.9501732E-1,2.4699561E-2,-1.2531392E-1,5.8386516E-2,6.3094585E-3,-1.9777356E-1,2.831456E-1,-1.3152127E-1,-1.8761119E-1,1.3861282E-1,2.5734034E-1,-9.1659464E-2,-1.05135925E-1,-1.7044887E-1,-1.4328696E-1,4.3045238E-1,2.891921E-1,-1.0786004E-1,2.2778066E-1,-1.8150872E-1],"split_indices":[13,484,253,227,487,658,388,316,103,507,285,354,61,503,711,530,579,67,205,657,722,266,747,78,81,40,42,31,10,321,727,429,544,13,752,151,134,443,7,295,168,746,226,597,520,9,561,0,0,472,726,0,0,0,0,227,0,0,0,0,0,308,648,0,0,0,0,0,0,0,0,0,0,0,0,0,0,0,0,0,0,0,0,0,0,0,0,0,0,0,0,0,0,0,0,0,0,0,0,0,0,0,0,0,0,0,0],"split_type":[0,0,0,0,0,0,0,0,0,0,0,0,0,0,0,0,0,0,0,0,0,0,0,0,0,0,0,0,0,0,0,0,0,0,0,0,0,0,0,0,0,0,0,0,0,0,0,0,0,0,0,0,0,0,0,0,0,0,0,0,0,0,0,0,0,0,0,0,0,0,0,0,0,0,0,0,0,0,0,0,0,0,0,0,0,0,0,0,0,0,0,0,0,0,0,0,0,0,0,0,0,0,0,0,0,0,0],"sum_hessian":[3.7936003E3,2.6764268E3,1.1171737E3,1.3533475E3,1.3230792E3,1.5084296E2,9.663307E2,2.464873E2,1.1068602E3,8.1240393E2,5.1067535E2,1.2075296E2,3.009E1,8.9502277E2,7.1307945E1,8.4066505E1,1.624208E2,6.156254E2,4.912348E2,3.636341E2,4.487698E2,3.9459155E2,1.1608379E2,7.5104904E0,1.1324247E2,9.061871E0,2.102813E1,8.8586554E2,9.157208E0,1.3669547E1,5.7638397E1,2.0521513E1,6.354499E1,9.795803E0,1.52625E2,5.2171985E2,9.390556E1,4.4853558E2,4.2699215E1,3.5046036E2,1.3173746E1,1.5166954E2,2.9710025E2,2.561075E2,1.3848402E2,5.8940864E0,1.1018971E2,1.4429796E0,6.067511E0,6.3890877E1,4.9351597E1,2.4834445E0,6.5784264E0,1.6515543E0,1.9376575E1,8.7996124E2,5.9043293E0,3.166523E0,5.990685E0,1.0483583E1,3.1859634E0,1.4952497E1,4.26859E1,1.7128977E1,3.3925366E0,5.5114226E0,5.803357E1,2.7133338E0,7.0824695E0,1.2076192E2,3.186308E1,2.6775826E1,4.9494403E2,5.8653427E1,3.5252132E1,1.9867365E1,4.286682E2,1.9443823E1,2.325539E1,3.128604E2,3.7599957E1,9.447328E0,3.7264185E0,5.066989E0,1.4660254E2,2.613524E2,3.5747868E1,1.2574463E2,1.3036288E2,1.0463745E2,3.3846577E1,1.2828891E0,4.611197E0,1.0520935E2,4.9803576E0,5.99464E1,3.944477E0,1.3518592E1,3.5833004E1,3.3689523E2,5.43066E2,2.3397632E0,3.5645664E0,1.0770986E1,4.181511E0,2.6745539E0,4.0011345E1],"tree_param":{"num_deleted":"0","num_feature":"768","num_nodes":"107","size_leaf_vector":"1"}},{"base_weights":[2.6077017E-1,3.554207E-1,2.1000627E-1,2.8028545E-1,5.6283605E-1,2.701042E-1,6.2247667E-2,5.480458E-1,2.2237886E-1,1.9816323E-1,6.582224E-1,4.0435126E-1,1.7570323E-1,1.4624932E-1,-1.9458783E-1,-4.6274897E-1,6.2311596E-1,2.552714E-1,-4.6281323E-1,4.3025088E-1,-5.811031E-1,7.074714E-1,-1.5028456E-1,4.467187E-1,-2.4675371E-1,2.6693413E-1,-1.606019E-2,2.4480994E-1,-1.391912E-1,4.4032693E-1,-2.7374378E-1,-6.9526774E-1,2.0417023E-1,-1.960461E-1,6.694434E-1,-3.2688206E-1,2.9162195E-1,-7.369588E-1,7.985908E-1,7.9231477E-1,-6.515272E-2,1.4476408E-1,-2.2594468E-1,7.4813783E-1,-2.5889668E-1,-2.0755439E-1,2.485649E-1,-2.1331948E-1,4.8330632E-1,2.7001092E-1,-6.655749E-1,3.5483608E-1,4.75815E-2,5.525817E-1,-1.0176857E-1,1.9117357E-1,9.340324E-1,-4.6236828E-1,1.7008498E-1,-2.2394209E-1,7.923765E-1,1.9969231E-1,-4.315602E-1,-2.3167385E-1,-6.694607E-4,-3.4793705E-2,2.2049166E-1,2.1851419E-1,-1.8799259E-1,6.5049335E-2,1.6943859E-1,-2.305164E-1,-2.612204E-2,2.6057532E-1,8.340623E-2,2.9553202E-1,-3.336406E-2,-1.6265824E-1,1.7138702E-1,-1.05434984E-1,2.3466559E-1,-2.2318995E-1,2.6059434E-1,1.9416435E-1,-1.7186262E-1,3.235713E-2,1.606201E-1,2.732625E-1,-1.8684624E-1,-2.3469554E-1,1.8971035E-1,2.0877495E-2,1.4185768E-1,1.0525907E-1,-4.1283507E-2,-1.24748394E-1,2.4456497E-1,2.1382641E-2,-1.4534126E-1,-3.550557E-2,9.3064494E-2,3.20061E-1,-1.7493947E-1,1.3018198E-1,-1.7375104E-1,-6.296239E-2,1.717026E-1,-3.3827316E-2,3.1241825E-1,-4.76666E-2,2.4525258E-1,1.5924002E-1,-1.4812033E-1],"categories":[],"categories_nodes":[],"categories_segments":[],"categories_sizes":[],"default_left":[0,0,0,0,0,0,0,0,0,0,0,0,0,0,0,0,0,0,0,0,0,0,0,0,0,0,0,0,0,0,0,0,0,0,0,0,0,0,0,0,0,0,0,0,0,0,0,0,0,0,0,0,0,0,0,0,0,0,0,0,0,0,0,0,0,0,0,0,0,0,0,0,0,0,0,0,0,0,0,0,0,0,0,0,0,0,0,0,0,0,0,0,0,0,0,0,0,0,0,0,0,0,0,0,0,0,0,0,0,0,0,0,0],"id":7,"left_children":[1,3,5,7,9,11,13,15,17,19,21,23,25,27,29,31,33,35,37,39,41,43,45,47,49,51,53,55,57,59,61,63,-1,-1,65,67,69,71,73,75,77,-1,-1,79,81,-1,-1,83,85,87,89,91,93,95,97,99,101,103,105,-1,107,109,111,-1,-1,-1,-1,-1,-1,-1,-1,-1,-1,-1,-1,-1,-1,-1,-1,-1,-1,-1,-1,-1,-1,-1,-1,-1,-1,-1,-1,-1,-1,-1,-1,-1,-1,-1,-1,-1,-1,-1,-1,-1,-1,-1,-1,-1,-1,-1,-1,-1,-1],"loss_changes":[2.149884E1,2.4247025E1,2.5956863E1,1.7733139E1,1.4320328E1,2.6275818E1,1.8302164E1,1.5773663E1,2.1494812E1,1.6086788E1,1.3201279E1,2.3766739E1,2.1389874E1,1.8006193E1,1.0633266E1,4.376371E0,1.1697632E1,1.926101E1,1.5735527E1,1.225664E1,4.1185064E0,1.2382645E1,1.1020002E1,1.9555984E1,1.1658585E1,1.5955605E1,1.9308336E1,1.7389086E1,1.6530823E1,1.0439798E1,1.4028711E1,6.755762E-1,0E0,0E0,9.566597E0,1.744311E1,1.7304703E1,6.786537E-1,6.0937405E-2,6.970833E0,9.313515E0,0E0,0E0,1.1438431E1,7.903009E0,0E0,0E0,1.3675749E1,1.4875839E1,1.45593195E1,4.9773397E0,1.987133E1,1.3423917E1,1.3538075E1,2.2823744E1,1.6328882E1,7.485401E0,8.706253E0,1.3087374E1,0E0,4.3241262E0,1.0616666E1,8.655029E0,0E0,0E0,0E0,0E0,0E0,0E0,0E0,0E0,0E0,0E0,0E0,0E0,0E0,0E0,0E0,0E0,0E0,0E0,0E0,0E0,0E0,0E0,0E0,0E0,0E0,0E0,0E0,0E0,0E0,0E0,0E0,0E0,0E0,0E0,0E0,0E0,0E0,0E0,0E0,0E0,0E0,0E0,0E0,0E0,0E0,0E0,0E0,0E0,0E0,0E0],"parents":[2147483647,0,0,1,1,2,2,3,3,4,4,5,5,6,6,7,7,8,8,9,9,10,10,11,11,12,12,13,13,14,14,15,15,16,16,17,17,18,18,19,19,20,20,21,21,22,22,23,23,24,24,25,25,26,26,27,27,28,28,29,29,30,30,31,31,34,34,35,35,36,36,37,37,38,38,39,39,40,40,43,43,44,44,47,47,48,48,49,49,50,50,51,51,52,52,53,53,54,54,55,55,56,56,57,57,58,58,60,60,61,61,62,62],"right_children":[2,4,6,8,10,12,14,16,18,20,22,24,26,28,30,32,34,36,38,40,42,44,46,48,50,52,54,56,58,60,62,64,-1,-1,66,68,70,72,74,76,78,-1,-1,80,82,-1,-1,84,86,88,90,92,94,96,98,100,102,104,106,-1,108,110,112,-1,-1,-1,-1,-1,-1,-1,-1,-1,-1,-1,-1,-1,-1,-1,-1,-1,-1,-1,-1,-1,-1,-1,-1,-1,-1,-1,-1,-1,-1,-1,-1,-1,-1,-1,-1,-1,-1,-1,-1,-1,-1,-1,-1,-1,-1,-1,-1,-1,-1],"split_conditions":[-3.7706564E-3,1.7615236E-1,-1.7762182E-2,-6.664148E-2,-2.6921108E-1,-1.00458235E-1,2.8305864E-1,-1.5777877E-1,2.3925155E-2,1.2793298E-1,-2.920471E-2,1.4411393E-1,1.0794494E-1,5.7406463E-2,1.5380292E-3,-5.01927E-4,7.5379245E-2,9.719427E-3,1.8185954E-1,-1.9094034E-1,1.4960566E-1,1.7282795E-2,-9.2150144E-2,-1.3443992E-1,-1.7378207E-1,-7.221624E-2,-4.4583082E-2,1.6825704E-1,1.9199702E-1,5.0199027E-3,-5.937668E-2,1.4363077E-1,2.0417023E-1,-1.960461E-1,-3.6892597E-2,-2.130289E-2,7.539512E-2,-6.2306073E-2,3.8433895E-2,-1.5404041E-1,4.5779664E-2,1.4476408E-1,-2.2594468E-1,-3.4504792E-1,1.2814447E-1,-2.0755439E-1,2.485649E-1,-6.119633E-2,7.6589026E-3,-3.8037848E-2,2.3797631E-2,-1.3332957E-1,1.7064026E-1,-4.2862543E-3,-1.6069746E-1,-1.6236681E-1,4.6350686E-3,-3.4007665E-2,6.1396886E-2,-2.2394209E-1,-4.6607245E-2,2.2480384E-2,-1.1242415E-1,-2.3167385E-1,-6.694607E-4,-3.4793705E-2,2.2049166E-1,2.1851419E-1,-1.8799259E-1,6.5049335E-2,1.6943859E-1,-2.305164E-1,-2.612204E-2,2.6057532E-1,8.340623E-2,2.9553202E-1,-3.336406E-2,-1.6265824E-1,1.7138702E-1,-1.05434984E-1,2.3466559E-1,-2.2318995E-1,2.6059434E-1,1.9416435E-1,-1.7186262E-1,3.235713E-2,1.606201E-1,2.732625E-1,-1.8684624E-1,-2.3469554E-1,1.8971035E-1,2.0877495E-2,1.4185768E-1,1.0525907E-1,-4.1283507E-2,-1.24748394E-1,2.4456497E-1,2.1382641E-2,-1.4534126E-1,-3.550557E-2,9.3064494E-2,3.20061E-1,-1.7493947E-1,1.3018198E-1,-1.7375104E-1,-6.296239E-2,1.717026E-1,-3.3827316E-2,3.1241825E-1,-4.76666E-2,2.4525258E-1,1.5924002E-1,-1.4812033E-1],"split_indices":[140,337,503,263,50,664,257,410,334,712,664,516,513,144,184,349,649,81,417,457,480,478,36,559,143,279,44,341,164,28,292,385,0,0,294,352,144,580,4,603,475,0,0,253,90,0,0,290,360,83,13,187,710,468,724,259,22,447,451,0,382,745,270,0,0,0,0,0,0,0,0,0,0,0,0,0,0,0,0,0,0,0,0,0,0,0,0,0,0,0,0,0,0,0,0,0,0,0,0,0,0,0,0,0,0,0,0,0,0,0,0,0,0],"split_type":[0,0,0,0,0,0,0,0,0,0,0,0,0,0,0,0,0,0,0,0,0,0,0,0,0,0,0,0,0,0,0,0,0,0,0,0,0,0,0,0,0,0,0,0,0,0,0,0,0,0,0,0,0,0,0,0,0,0,0,0,0,0,0,0,0,0,0,0,0,0,0,0,0,0,0,0,0,0,0,0,0,0,0,0,0,0,0,0,0,0,0,0,0,0,0,0,0,0,0,0,0,0,0,0,0,0,0,0,0,0,0,0,0],"sum_hessian":[4.48896E3,1.5649928E3,2.923967E3,1.1505592E3,4.144335E2,2.0779666E3,8.460007E2,2.0307497E2,9.4748425E2,8.65646E1,3.2786893E2,8.565659E2,1.2214005E3,6.3782245E2,2.081782E2,1.3682359E1,1.8939261E2,9.0468256E2,4.2801716E1,6.704466E1,1.951993E1,3.0916177E2,1.8707148E1,8.045291E2,5.203685E1,8.273833E2,3.9401724E2,4.7421994E2,1.6360251E2,2.2571117E1,1.8560709E2,1.169567E1,1.9866886E0,6.173357E0,1.8321925E2,5.270001E1,8.5198254E2,3.550175E1,7.299963E0,3.8388927E1,2.8655737E1,2.466482E0,1.7053448E1,2.968938E2,1.2267988E1,1.2232447E1,6.474701E0,4.200111E1,7.62528E2,2.3453697E1,2.858315E1,5.902376E2,2.3714565E2,5.0895836E1,3.431214E2,4.4116516E2,3.3054794E1,7.976125E1,8.384125E1,4.907384E0,1.7663734E1,4.6336403E1,1.3927069E2,1.0423585E1,1.2720853E0,1.4049783E1,1.6916946E2,1.1342044E1,4.1357964E1,6.70267E2,1.8171552E2,3.3690117E1,1.8116345E0,5.8454795E0,1.4544833E0,3.1563683E1,6.825245E0,1.6463623E1,1.2192112E1,8.645383E0,2.882484E2,8.815673E0,3.452315E0,1.2141802E1,2.9859308E1,9.328431E1,6.6924365E2,1.3641664E1,9.812034E0,2.6588877E1,1.9942741E0,1.7320808E2,4.1702954E2,8.9568695E1,1.4757695E2,1.0733832E1,4.0162003E1,2.3684325E2,1.06278145E2,1.225424E2,3.1862277E2,3.066654E1,2.3882556E0,8.8826685E0,7.0878586E1,4.3361534E1,4.0479717E1,3.929154E0,1.373458E1,2.9789425E1,1.6546978E1,7.994286E0,1.312764E2],"tree_param":{"num_deleted":"0","num_feature":"768","num_nodes":"113","size_leaf_vector":"1"}},{"base_weights":[-1.5409952E-1,-2.954222E-1,-3.8999826E-2,-2.3123023E-1,-4.8719832E-1,-2.376925E-1,5.4763976E-2,4.0419108E-1,-2.5131074E-1,-5.188747E-1,2.7808183E-1,-1.2846326E-2,-3.3436286E-1,1.3345675E-1,-1.366815E-1,-1.848358E-1,8.268278E-1,-1.0461902E-1,-3.3970195E-1,-5.3412634E-1,2.5231197E-1,3.5735902E-1,-1.7692706E-1,1.368654E-1,-6.2762463E-1,-1.025301E-1,-4.367127E-1,5.2232885E-1,7.616109E-2,-3.477532E-1,8.464467E-2,3.319941E-1,-1.632063E-1,4.4873303E-1,-1.7031007E-1,-1.9581324E-1,-4.7354898E-1,-1.798521E-1,-5.9100163E-1,-5.246428E-1,2.8645176E-1,2.9353088E-1,-5.9320647E-1,-1.9562463E-1,3.6129568E-2,1.4818436E-1,-4.623532E-1,-4.5733228E-1,2.3673256E-1,-1.3444716E-1,7.368046E-1,-8.52169E-2,2.4508741E-1,3.263786E-1,-4.450433E-1,-2.069065E-2,1.2072259E0,3.1523526E-1,-4.2056277E-2,2.9270294E-1,-5.962545E-2,-1.5783967E-1,-2.7477039E-2,-1.4897421E-1,1.7358008E-1,2.8792125E-1,-1.1253964E-1,1.15891E-1,-1.8205559E-1,-1.8292367E-1,2.508465E-2,-7.8655735E-2,1.5708628E-1,-1.961742E-1,1.1379444E-1,1.553179E-1,-1.14427395E-1,-1.6958031E-1,1.8808816E-1,-1.555214E-1,1.3470571E-4,-1.603159E-1,3.0524093E-1,-1.1479206E-1,2.6639563E-1,8.774716E-2,-6.0168575E-2,1.06913984E-1,-9.820096E-2,-1.9553424E-1,2.6324102E-1,2.542917E-1,-1.4964667E-1,3.067547E-1,-3.5398934E-2,-9.255468E-3,3.9451417E-1],"categories":[],"categories_nodes":[],"categories_segments":[],"categories_sizes":[],"default_left":[0,0,0,0,0,0,0,0,0,0,0,0,0,0,0,0,0,0,0,0,0,0,0,0,0,0,0,0,0,0,0,0,0,0,0,0,0,0,0,0,0,0,0,0,0,0,0,0,0,0,0,0,0,0,0,0,0,0,0,0,0,0,0,0,0,0,0,0,0,0,0,0,0,0,0,0,0,0,0,0,0,0,0,0,0,0,0,0,0,0,0,0,0,0,0,0,0],"id":8,"left_children":[1,3,5,7,9,11,13,15,17,19,21,23,25,27,29,-1,31,33,35,37,-1,-1,39,41,43,45,47,49,51,53,55,-1,-1,57,59,61,63,65,67,69,-1,71,73,-1,-1,75,77,79,-1,81,83,85,87,89,91,93,95,-1,-1,-1,-1,-1,-1,-1,-1,-1,-1,-1,-1,-1,-1,-1,-1,-1,-1,-1,-1,-1,-1,-1,-1,-1,-1,-1,-1,-1,-1,-1,-1,-1,-1,-1,-1,-1,-1,-1,-1],"loss_changes":[6.1711006E1,2.085318E1,3.899553E1,1.6406906E1,1.0475899E1,1.458139E1,2.1447226E1,1.7555557E1,1.603431E1,8.944885E0,7.519408E0,1.8751638E1,1.1089321E1,2.2431463E1,1.9409298E1,0E0,1.148781E1,1.7068155E1,1.4792908E1,8.067863E0,0E0,0E0,5.4639225E0,1.8921356E1,8.084154E-1,1.3151176E1,8.581066E0,1.8318913E1,2.401622E1,1.4084864E1,2.4065704E1,0E0,0E0,1.7832397E1,1.3836432E1,1.2834004E1,9.973778E0,1.3168416E1,5.642517E0,5.837817E-1,0E0,1.7478027E1,1.977274E0,0E0,0E0,1.7072891E1,7.057729E0,8.9599E0,0E0,1.5602275E1,1.6867352E1,1.970302E1,2.752983E1,1.5332223E1,1.3364246E1,1.9087917E1,2.3709812E0,0E0,0E0,0E0,0E0,0E0,0E0,0E0,0E0,0E0,0E0,0E0,0E0,0E0,0E0,0E0,0E0,0E0,0E0,0E0,0E0,0E0,0E0,0E0,0E0,0E0,0E0,0E0,0E0,0E0,0E0,0E0,0E0,0E0,0E0,0E0,0E0,0E0,0E0,0E0,0E0],"parents":[2147483647,0,0,1,1,2,2,3,3,4,4,5,5,6,6,7,7,8,8,9,9,10,10,11,11,12,12,13,13,14,14,16,16,17,17,18,18,19,19,22,22,23,23,24,24,25,25,26,26,27,27,28,28,29,29,30,30,33,33,34,34,35,35,36,36,37,37,38,38,39,39,41,41,42,42,45,45,46,46,47,47,49,49,50,50,51,51,52,52,53,53,54,54,55,55,56,56],"right_children":[2,4,6,8,10,12,14,16,18,20,22,24,26,28,30,-1,32,34,36,38,-1,-1,40,42,44,46,48,50,52,54,56,-1,-1,58,60,62,64,66,68,70,-1,72,74,-1,-1,76,78,80,-1,82,84,86,88,90,92,94,96,-1,-1,-1,-1,-1,-1,-1,-1,-1,-1,-1,-1,-1,-1,-1,-1,-1,-1,-1,-1,-1,-1,-1,-1,-1,-1,-1,-1,-1,-1,-1,-1,-1,-1,-1,-1,-1,-1,-1,-1],"split_conditions":[-6.630938E-2,-1.008099E-1,1.268903E-1,-1.9570763E-1,8.490443E-2,-6.169732E-2,1.0440453E-1,2.607313E-1,8.314561E-2,3.8480604E-1,-2.3352625E-3,1.2858883E-2,-9.798114E-2,3.550677E-1,-1.4392711E-1,-1.848358E-1,-1.0214051E-2,-7.245232E-2,-1.0312964E-1,-1.8420652E-1,2.5231197E-1,3.5735902E-1,-4.073282E-3,8.684797E-3,-1.5663084E-2,2.1220954E-2,-3.9282843E-2,-1.1861281E-1,7.598302E-2,-1.5791199E-1,7.074522E-2,3.319941E-1,-1.632063E-1,-9.58647E-2,-1.00063644E-1,-2.9466158E-1,-2.0326067E-2,1.4835971E-2,-1.4411281E-1,3.205374E-1,2.8645176E-1,1.412144E-1,1.2548237E-1,-1.9562463E-1,3.6129568E-2,1.3081832E-2,3.7623039E-3,1.8113996E-1,2.3673256E-1,9.010864E-2,1.801323E-1,-8.865531E-2,-2.928277E-2,3.127904E-1,-1.5509233E-1,-1.800718E-1,-3.450645E-2,3.1523526E-1,-4.2056277E-2,2.9270294E-1,-5.962545E-2,-1.5783967E-1,-2.7477039E-2,-1.4897421E-1,1.7358008E-1,2.8792125E-1,-1.1253964E-1,1.15891E-1,-1.8205559E-1,-1.8292367E-1,2.508465E-2,-7.8655735E-2,1.5708628E-1,-1.961742E-1,1.1379444E-1,1.553179E-1,-1.14427395E-1,-1.6958031E-1,1.8808816E-1,-1.555214E-1,1.3470571E-4,-1.603159E-1,3.0524093E-1,-1.1479206E-1,2.6639563E-1,8.774716E-2,-6.0168575E-2,1.06913984E-1,-9.820096E-2,-1.9553424E-1,2.6324102E-1,2.542917E-1,-1.4964667E-1,3.067547E-1,-3.5398934E-2,-9.255468E-3,3.9451417E-1],"split_indices":[734,356,370,84,745,440,165,428,659,489,170,129,540,311,143,0,32,453,8,700,0,0,478,19,358,671,443,547,199,180,371,0,0,547,77,394,460,716,387,523,0,315,158,0,0,723,469,80,0,353,710,283,119,523,0,590,29,0,0,0,0,0,0,0,0,0,0,0,0,0,0,0,0,0,0,0,0,0,0,0,0,0,0,0,0,0,0,0,0,0,0,0,0,0,0,0,0],"split_type":[0,0,0,0,0,0,0,0,0,0,0,0,0,0,0,0,0,0,0,0,0,0,0,0,0,0,0,0,0,0,0,0,0,0,0,0,0,0,0,0,0,0,0,0,0,0,0,0,0,0,0,0,0,0,0,0,0,0,0,0,0,0,0,0,0,0,0,0,0,0,0,0,0,0,0,0,0,0,0,0,0,0,0,0,0,0,0,0,0,0,0,0,0,0,0,0,0],"sum_hessian":[3.793527E3,1.7020884E3,2.0914387E3,1.2768894E3,4.2519904E2,6.7003925E2,1.4213995E3,3.8529957E1,1.2383594E3,4.0860797E2,1.659106E1,2.0180132E2,4.6823795E2,1.00755255E3,4.1384695E2,1.1151269E1,2.7378689E1,4.6644437E2,7.7191504E2,4.046767E2,3.931274E0,4.979734E0,1.1611327E1,1.6290727E2,3.8894047E1,1.4401993E2,3.2421802E2,1.2834491E2,8.7920764E2,2.1153835E2,2.0230861E2,2.2897547E1,4.481142E0,4.887895E1,4.1756543E2,3.7319003E2,3.98725E2,5.6555687E1,3.4812103E2,9.292733E0,2.3185942E0,1.3461772E2,2.828955E1,3.7786915E1,1.1071329E0,8.522545E1,5.8794483E1,3.194711E2,4.7469125E0,3.1686476E1,9.665844E1,4.4990338E2,4.2930426E2,2.6381798E1,1.8515654E2,1.8585118E2,1.645743E1,2.3782227E1,2.5096724E1,9.305744E0,4.0825967E2,8.853714E1,2.846529E2,3.9070056E2,8.024465E0,7.7009306E0,4.8854755E1,5.1828413E0,3.4293817E2,8.150003E0,1.1427294E0,3.937622E1,9.52415E1,2.6935757E1,1.3537948E0,5.021187E1,3.5013584E1,5.415883E1,4.6356525E0,2.817505E2,3.7720604E1,2.3918274E1,7.768203E0,1.1318393E1,8.534005E1,1.0489141E2,3.4501196E2,3.597399E2,6.956437E1,9.441286E0,1.6940512E1,6.805733E0,1.7835081E2,1.504516E1,1.7080602E2,1.3756089E0,1.5081821E1],"tree_param":{"num_deleted":"0","num_feature":"768","num_nodes":"97","size_leaf_vector":"1"}},{"base_weights":[-1.2549509E-1,-2.6139447E-2,-2.9637972E-1,-2.2513233E-1,5.308134E-2,-3.927313E-1,-1.4076199E-1,3.5190985E-1,-2.8635707E-1,2.4950609E-1,-3.7991825E-2,1.6930832E-1,-4.4577414E-1,-1.8106453E-1,6.7379344E-1,-6.2142294E-2,8.1333697E-1,-3.8268575E-1,3.1003019E-2,-3.5430863E-1,3.2991192E-1,3.5563283E-2,-2.8803554E-1,-8.206694E-2,1.0077486E0,-5.020055E-1,-1.04089715E-1,4.656242E-1,-2.356021E-1,1.1244824E0,-1.6950144E-1,-1.8872663E-1,4.2160106E-1,1.0016396E0,-1.5374488E-1,-1.8072091E-1,-4.951376E-1,3.6280942E-1,-4.1085374E-1,3.6718708E-1,-5.458335E-1,1.0249311E-1,5.409593E-1,1.4636554E-1,-1.700806E-1,3.648869E-1,-3.226094E-1,6.299148E-1,-3.4515738E-1,-1.2437869E-1,1.2249553E0,-5.279131E-1,2.5604984E-1,-2.7117324E-1,6.9688416E-1,-1.599253E-1,1.0091205E0,9.6009666E-1,-2.609659E-1,3.6311305E-1,2.778698E-4,3.114185E-1,-9.794588E-2,3.586054E-1,-1.4982499E-1,-1.3902505E-1,2.475477E-2,-1.5396029E-1,2.996883E-1,-1.4458041E-1,1.7145717E-1,-1.5174158E-1,2.1138243E-1,2.4709232E-1,-1.692836E-1,-1.797812E-1,2.161699E-1,-6.6957116E-2,8.574581E-2,6.521022E-2,2.1743965E-1,1.3768523E-2,1.4032651E-1,-6.289876E-2,2.4094759E-1,-1.2420764E-1,2.371239E-2,-1.5081336E-1,3.0806956E-1,2.1286215E-1,-1.600404E-1,3.8350496E-1,1.10795E-1,1.9162124E-1,-1.6164072E-1,2.3464638E-1,-1.7199342E-1,7.393569E-2,-1.4280654E-1,2.9188475E-1,-1.4406712E-1,2.2023478E-1,-1.7096567E-1,-5.4999802E-2,3.4004042E-1,3.1115812E-1,8.709251E-2,7.899474E-2,-9.520634E-2],"categories":[],"categories_nodes":[],"categories_segments":[],"categories_sizes":[],"default_left":[0,0,0,0,0,0,0,0,0,0,0,0,0,0,0,0,0,0,0,0,0,0,0,0,0,0,0,0,0,0,0,0,0,0,0,0,0,0,0,0,0,0,0,0,0,0,0,0,0,0,0,0,0,0,0,0,0,0,0,0,0,0,0,0,0,0,0,0,0,0,0,0,0,0,0,0,0,0,0,0,0,0,0,0,0,0,0,0,0,0,0,0,0,0,0,0,0,0,0,0,0,0,0,0,0,0,0,0,0],"id":9,"left_children":[1,3,5,7,9,11,13,15,17,19,21,23,25,27,29,31,33,35,37,39,41,43,45,47,49,51,53,55,57,59,-1,-1,61,63,-1,65,67,69,71,73,75,77,79,81,83,-1,85,87,89,-1,91,93,95,97,99,101,103,105,107,-1,-1,-1,-1,-1,-1,-1,-1,-1,-1,-1,-1,-1,-1,-1,-1,-1,-1,-1,-1,-1,-1,-1,-1,-1,-1,-1,-1,-1,-1,-1,-1,-1,-1,-1,-1,-1,-1,-1,-1,-1,-1,-1,-1,-1,-1,-1,-1,-1,-1],"loss_changes":[6.103708E1,3.5870476E1,1.9763718E1,2.2990414E1,2.9128542E1,2.4395935E1,1.6766296E1,1.2009991E1,1.7935493E1,2.5157738E1,2.0480333E1,1.5062892E1,1.4275421E1,1.717595E1,1.4098887E1,9.568319E0,7.922043E0,1.0127235E1,2.0300179E1,8.642502E0,2.1815395E1,1.964104E1,1.3556E1,1.0633359E1,5.596016E0,1.27057495E1,1.446082E1,1.3070686E1,1.3804516E1,1.7375774E0,0E0,0E0,9.056061E0,8.2511635E0,0E0,1.2128241E1,8.295776E0,1.4209195E1,6.649477E0,6.16772E0,3.7260914E0,1.3232995E1,1.3888565E1,1.806078E1,1.1798416E1,0E0,9.145977E0,7.421484E0,8.570988E0,0E0,1.9219017E-1,8.211105E0,9.971669E0,9.549732E0,6.53946E0,7.204812E0,3.2407722E0,1.8931293E-1,1.3044876E1,0E0,0E0,0E0,0E0,0E0,0E0,0E0,0E0,0E0,0E0,0E0,0E0,0E0,0E0,0E0,0E0,0E0,0E0,0E0,0E0,0E0,0E0,0E0,0E0,0E0,0E0,0E0,0E0,0E0,0E0,0E0,0E0,0E0,0E0,0E0,0E0,0E0,0E0,0E0,0E0,0E0,0E0,0E0,0E0,0E0,0E0,0E0,0E0,0E0,0E0],"parents":[2147483647,0,0,1,1,2,2,3,3,4,4,5,5,6,6,7,7,8,8,9,9,10,10,11,11,12,12,13,13,14,14,15,15,16,16,17,17,18,18,19,19,20,20,21,21,22,22,23,23,24,24,25,25,26,26,27,27,28,28,29,29,32,32,33,33,35,35,36,36,37,37,38,38,39,39,40,40,41,41,42,42,43,43,44,44,46,46,47,47,48,48,50,50,51,51,52,52,53,53,54,54,55,55,56,56,57,57,58,58],"right_children":[2,4,6,8,10,12,14,16,18,20,22,24,26,28,30,32,34,36,38,40,42,44,46,48,50,52,54,56,58,60,-1,-1,62,64,-1,66,68,70,72,74,76,78,80,82,84,-1,86,88,90,-1,92,94,96,98,100,102,104,106,108,-1,-1,-1,-1,-1,-1,-1,-1,-1,-1,-1,-1,-1,-1,-1,-1,-1,-1,-1,-1,-1,-1,-1,-1,-1,-1,-1,-1,-1,-1,-1,-1,-1,-1,-1,-1,-1,-1,-1,-1,-1,-1,-1,-1,-1,-1,-1,-1,-1,-1],"split_conditions":[-8.423678E-3,-4.4636007E-2,6.785916E-2,-3.0521852E-1,8.7961584E-2,-4.571365E-2,9.578988E-2,-1.9233084E-1,-1.9828996E-1,9.617734E-2,-7.917543E-2,6.9346815E-2,-1.0776896E-1,-6.499852E-2,6.163095E-2,3.0156562E-1,-1.7727053E-1,9.824734E-2,-6.0681887E-2,-9.05305E-2,-1.2528278E-1,-5.6308664E-2,1.590392E-1,2.9783212E-3,8.990078E-2,8.748819E-2,8.211193E-2,6.446501E-2,-5.783523E-2,1.4044099E-1,-1.6950144E-1,-1.8872663E-1,6.658219E-2,1.3362956E-1,-1.5374488E-1,-1.1097207E-3,1.1050181E-1,-2.7802002E-1,-3.8734853E-2,1.4175647E-1,-2.4141762E-1,2.3411743E-2,-3.0177653E-2,2.198369E-1,6.9214455E-3,3.648869E-1,3.0344937E-2,5.0457306E-2,-3.061397E-1,-1.2437869E-1,4.5372897E-1,-1.7984061E-1,4.31631E-2,2.3154084E-1,2.8346486E-2,-1.3627726E-1,2.2576676E-1,3.390115E-1,1.8926555E-1,3.6311305E-1,2.778698E-4,3.114185E-1,-9.794588E-2,3.586054E-1,-1.4982499E-1,-1.3902505E-1,2.475477E-2,-1.5396029E-1,2.996883E-1,-1.4458041E-1,1.7145717E-1,-1.5174158E-1,2.1138243E-1,2.4709232E-1,-1.692836E-1,-1.797812E-1,2.161699E-1,-6.6957116E-2,8.574581E-2,6.521022E-2,2.1743965E-1,1.3768523E-2,1.4032651E-1,-6.289876E-2,2.4094759E-1,-1.2420764E-1,2.371239E-2,-1.5081336E-1,3.0806956E-1,2.1286215E-1,-1.600404E-1,3.8350496E-1,1.10795E-1,1.9162124E-1,-1.6164072E-1,2.3464638E-1,-1.7199342E-1,7.393569E-2,-1.4280654E-1,2.9188475E-1,-1.4406712E-1,2.2023478E-1,-1.7096567E-1,-5.4999802E-2,3.4004042E-1,3.1115812E-1,8.709251E-2,7.899474E-2,-9.520634E-2],"split_indices":[13,317,672,253,39,363,760,751,167,345,266,690,84,692,493,529,31,222,677,693,254,325,150,13,205,102,445,144,598,80,0,0,414,607,0,224,505,375,204,315,408,477,367,211,43,0,172,520,303,0,311,540,632,66,755,120,359,48,3,0,0,0,0,0,0,0,0,0,0,0,0,0,0,0,0,0,0,0,0,0,0,0,0,0,0,0,0,0,0,0,0,0,0,0,0,0,0,0,0,0,0,0,0,0,0,0,0,0,0],"split_type":[0,0,0,0,0,0,0,0,0,0,0,0,0,0,0,0,0,0,0,0,0,0,0,0,0,0,0,0,0,0,0,0,0,0,0,0,0,0,0,0,0,0,0,0,0,0,0,0,0,0,0,0,0,0,0,0,0,0,0,0,0,0,0,0,0,0,0,0,0,0,0,0,0,0,0,0,0,0,0,0,0,0,0,0,0,0,0,0,0,0,0,0,0,0,0,0,0,0,0,0,0,0,0,0,0,0,0,0,0],"sum_hessian":[3.5944507E3,2.273656E3,1.3207947E3,6.4689453E2,1.6267614E3,8.147895E2,5.0600513E2,6.1596916E1,5.852976E2,5.14772E2,1.1119894E3,7.0075935E1,7.4471356E2,4.828904E2,2.3114716E1,3.292114E1,2.8675781E1,4.488514E2,1.3644623E2,6.009285E1,4.5467914E2,8.5989325E2,2.5209616E2,5.460636E1,1.5469575E1,6.390716E2,1.05641975E2,3.697035E1,4.4592007E2,1.701628E1,6.0984364E0,1.5018739E1,1.7902397E1,2.5323645E1,3.3521366E0,1.6146515E2,2.8738626E2,7.802974E1,5.841649E1,1.2413319E1,4.767953E1,2.1956628E2,2.3511287E2,5.589926E2,3.009006E2,4.89585E0,2.472003E2,1.4357488E1,4.0248875E1,1.929008E0,1.3540567E1,6.1824585E2,2.0825756E1,8.79558E1,1.7686174E1,1.7515839E1,1.9454512E1,8.497109E0,4.3742294E2,1.5736009E1,1.2802703E0,9.602142E0,8.300256E0,2.2609537E1,2.7141075E0,7.748829E1,8.397686E1,2.84602E2,2.784271E0,1.5200137E1,6.28296E1,5.433765E1,4.078835E0,8.40856E0,4.004759E0,4.6254562E1,1.4249696E0,7.9001236E1,1.4056505E2,8.597071E1,1.4914217E2,4.267332E2,1.3225945E2,2.8989505E2,1.10055485E1,2.0134352E2,4.585678E1,3.6571167E0,1.0700371E1,5.6782064E0,3.4570667E1,1.2280215E1,1.2603518E0,5.1840677E0,6.1306177E2,1.2777365E1,8.048391E0,2.4881193E1,6.307461E1,1.4466754E1,3.21942E0,5.2581553E0,1.2257683E1,1.7923267E0,1.7662184E1,7.128081E0,1.3690282E0,4.2121532E1,3.9530142E2],"tree_param":{"num_deleted":"0","num_feature":"768","num_nodes":"109","size_leaf_vector":"1"}},{"base_weights":[2.0116748E-1,2.5946257E-1,1.3959496E-1,4.5970058E-1,2.1832508E-1,1.7856693E-1,-1.07942335E-1,-4.7574413E-1,4.9069127E-1,1.7952368E-1,4.8343077E-1,2.2715817E-1,3.6832108E-3,-3.5759577E-1,9.06569E-2,-2.0676593E-1,1.5575963E-1,5.344253E-1,-2.0909227E-1,1.9053495E-1,-2.058657E-1,-2.0505218E-1,5.490798E-1,8.205976E-2,3.1704375E-1,5.277009E-1,-4.675265E-2,-5.3044474E-1,1.3809551E-1,-8.870053E-2,6.8991053E-1,-2.7803388E-1,5.8046895E-1,6.7863864E-1,-6.575727E-1,1.6462553E-1,5.4656875E-1,2.2603162E-1,-5.979463E-1,8.242887E-1,3.603163E-1,-2.6093856E-1,1.5628311E-1,1.4436013E-1,4.0025213E-1,7.9684794E-1,-3.4862515E-1,-3.8345924E-1,4.080523E-2,-6.036953E-1,6.266348E-1,5.044455E-1,-6.3498676E-1,-3.3729854E-1,2.7210745E-1,-5.109299E-1,8.6901635E-1,-2.1278301E-1,2.5170556E-1,1.8353522E-1,-1.3317095E-1,2.6188466E-1,-4.5776173E-2,-2.1396841E-1,-7.4770837E-3,5.44555E-2,-1.1798798E-1,-7.014817E-2,2.1998198E-1,-2.2262053E-1,1.5285988E-1,2.5821638E-1,-1.03810765E-1,1.4863071E-1,-1.2648821E-1,-1.4499173E-1,1.255686E-1,1.3672824E-1,1.7218394E-2,2.4237154E-2,2.3725109E-1,1.3067482E-1,-9.170273E-2,-1.0755288E-2,2.9139456E-1,-2.2051868E-1,2.1543975E-1,1.7089076E-1,-1.4540295E-1,8.295338E-2,-4.179935E-2,-1.9376665E-1,1.9947521E-1,2.5183815E-1,-2.909696E-2,2.3776305E-1,-1.1556513E-1,1.02348E-3,-2.1486975E-1,-1.383281E-1,2.2831461E-1,1.6141719E-1,-1.1954407E-1,-1.9403961E-1,-1.1185434E-2,2.8067005E-1,-1.298665E-1],"categories":[],"categories_nodes":[],"categories_segments":[],"categories_sizes":[],"default_left":[0,0,0,0,0,0,0,0,0,0,0,0,0,0,0,0,0,0,0,0,0,0,0,0,0,0,0,0,0,0,0,0,0,0,0,0,0,0,0,0,0,0,0,0,0,0,0,0,0,0,0,0,0,0,0,0,0,0,0,0,0,0,0,0,0,0,0,0,0,0,0,0,0,0,0,0,0,0,0,0,0,0,0,0,0,0,0,0,0,0,0,0,0,0,0,0,0,0,0,0,0,0,0,0,0,0,0],"id":10,"left_children":[1,3,5,7,9,11,13,15,17,19,21,23,25,27,29,-1,-1,31,33,35,-1,37,39,41,43,45,47,49,51,53,55,57,59,61,63,65,67,-1,69,71,73,75,77,79,81,83,85,87,89,91,93,95,97,99,101,103,105,-1,-1,-1,-1,-1,-1,-1,-1,-1,-1,-1,-1,-1,-1,-1,-1,-1,-1,-1,-1,-1,-1,-1,-1,-1,-1,-1,-1,-1,-1,-1,-1,-1,-1,-1,-1,-1,-1,-1,-1,-1,-1,-1,-1,-1,-1,-1,-1,-1,-1],"loss_changes":[1.6003998E1,1.879869E1,2.1006096E1,1.1542969E1,1.9511147E1,1.5974503E1,1.4735086E1,3.1227324E0,1.1683235E1,1.5989307E1,1.1080296E1,1.9161163E1,1.0854856E1,1.1347351E1,1.789806E1,0E0,0E0,1.3484108E1,9.586824E0,1.50702095E1,0E0,8.67968E0,1.12256775E1,1.4401708E1,1.2989906E1,8.782748E0,1.10629E1,8.6649685E0,1.01803255E1,1.162777E1,8.690601E0,1.012201E1,1.109362E1,1.4572895E0,5.37168E-1,1.45233345E1,1.635233E1,0E0,2.9409118E0,4.1123695E0,1.4297289E1,1.5421856E1,1.372599E1,1.2135075E1,1.54025345E1,4.086773E0,4.307378E0,7.745677E0,1.2703739E1,5.3785057E0,1.0534501E0,6.5023575E0,6.059761E-1,1.0765279E1,9.669912E0,3.3666873E-1,3.3279743E0,0E0,0E0,0E0,0E0,0E0,0E0,0E0,0E0,0E0,0E0,0E0,0E0,0E0,0E0,0E0,0E0,0E0,0E0,0E0,0E0,0E0,0E0,0E0,0E0,0E0,0E0,0E0,0E0,0E0,0E0,0E0,0E0,0E0,0E0,0E0,0E0,0E0,0E0,0E0,0E0,0E0,0E0,0E0,0E0,0E0,0E0,0E0,0E0,0E0,0E0],"parents":[2147483647,0,0,1,1,2,2,3,3,4,4,5,5,6,6,7,7,8,8,9,9,10,10,11,11,12,12,13,13,14,14,17,17,18,18,19,19,21,21,22,22,23,23,24,24,25,25,26,26,27,27,28,28,29,29,30,30,31,31,32,32,33,33,34,34,35,35,36,36,38,38,39,39,40,40,41,41,42,42,43,43,44,44,45,45,46,46,47,47,48,48,49,49,50,50,51,51,52,52,53,53,54,54,55,55,56,56],"right_children":[2,4,6,8,10,12,14,16,18,20,22,24,26,28,30,-1,-1,32,34,36,-1,38,40,42,44,46,48,50,52,54,56,58,60,62,64,66,68,-1,70,72,74,76,78,80,82,84,86,88,90,92,94,96,98,100,102,104,106,-1,-1,-1,-1,-1,-1,-1,-1,-1,-1,-1,-1,-1,-1,-1,-1,-1,-1,-1,-1,-1,-1,-1,-1,-1,-1,-1,-1,-1,-1,-1,-1,-1,-1,-1,-1,-1,-1,-1,-1,-1,-1,-1,-1,-1,-1,-1,-1,-1,-1],"split_conditions":[1.2211069E-1,2.7300954E-2,9.811507E-2,-1.349408E-1,2.9429162E-1,3.704786E-2,-1.0285359E-1,-2.0755315E-1,1.23248875E-1,1.4673522E-1,-2.1314062E-1,-2.2887781E-2,-2.889242E-2,6.5161586E-3,5.5386994E-2,-2.0676593E-1,1.5575963E-1,-1.5637594E-1,-5.7063248E-2,7.681055E-2,-2.058657E-1,3.061256E-3,7.3850155E-4,-1.1921543E-2,-8.841987E-2,1.4754802E-1,2.2343692E-1,1.1821211E-1,1.8987736E-1,1.4495209E-1,-2.365873E-2,-1.0797893E-1,3.506483E-2,-7.924942E-3,9.929962E-2,1.03581935E-1,-1.1167888E-1,2.2603162E-1,1.6967341E-1,2.1150959E-1,-2.0039806E-2,-4.82924E-2,2.1728868E-2,2.0944253E-2,8.072291E-2,1.8934718E-1,2.011371E-2,7.13408E-2,2.0577121E-1,8.838934E-2,1.3060048E-1,3.680885E-2,-2.0973565E-2,-1.7614166E-1,3.1944517E-2,-8.7230496E-2,1.0902025E-1,-2.1278301E-1,2.5170556E-1,1.8353522E-1,-1.3317095E-1,2.6188466E-1,-4.5776173E-2,-2.1396841E-1,-7.4770837E-3,5.44555E-2,-1.1798798E-1,-7.014817E-2,2.1998198E-1,-2.2262053E-1,1.5285988E-1,2.5821638E-1,-1.03810765E-1,1.4863071E-1,-1.2648821E-1,-1.4499173E-1,1.255686E-1,1.3672824E-1,1.7218394E-2,2.4237154E-2,2.3725109E-1,1.3067482E-1,-9.170273E-2,-1.0755288E-2,2.9139456E-1,-2.2051868E-1,2.1543975E-1,1.7089076E-1,-1.4540295E-1,8.295338E-2,-4.179935E-2,-1.9376665E-1,1.9947521E-1,2.5183815E-1,-2.909696E-2,2.3776305E-1,-1.1556513E-1,1.02348E-3,-2.1486975E-1,-1.383281E-1,2.2831461E-1,1.6141719E-1,-1.1954407E-1,-1.9403961E-1,-1.1185434E-2,2.8067005E-1,-1.298665E-1],"split_indices":[285,669,295,681,66,256,266,2,742,534,40,291,452,64,33,0,0,642,398,276,0,57,224,519,283,299,131,203,280,344,407,159,667,22,60,439,152,0,12,395,290,351,735,679,477,555,591,14,280,625,7,452,391,50,658,9,229,0,0,0,0,0,0,0,0,0,0,0,0,0,0,0,0,0,0,0,0,0,0,0,0,0,0,0,0,0,0,0,0,0,0,0,0,0,0,0,0,0,0,0,0,0,0,0,0,0,0],"split_type":[0,0,0,0,0,0,0,0,0,0,0,0,0,0,0,0,0,0,0,0,0,0,0,0,0,0,0,0,0,0,0,0,0,0,0,0,0,0,0,0,0,0,0,0,0,0,0,0,0,0,0,0,0,0,0,0,0,0,0,0,0,0,0,0,0,0,0,0,0,0,0,0,0,0,0,0,0,0,0,0,0,0,0,0,0,0,0,0,0,0,0,0,0,0,0,0,0,0,0,0,0,0,0,0,0,0,0],"sum_hessian":[4.4678037E3,2.293331E3,2.1744727E3,3.8911688E2,1.9042142E3,1.8789342E3,2.955385E2,1.2017614E1,3.7709924E2,1.6625564E3,2.416579E2,1.4701544E3,4.0877972E2,1.3058423E2,1.6495428E2,1.0147613E1,1.8700017E0,3.551405E2,2.1958761E1,1.6424463E3,2.0110144E1,2.0852053E1,2.2080585E2,5.630921E2,9.070624E2,3.5059216E1,3.737205E2,9.67701E1,3.3814117E1,1.2761186E2,3.7342426E1,1.8776836E1,3.3636365E2,7.1979003E0,1.476086E1,1.5323927E3,1.10053474E2,5.7956123E0,1.505644E1,8.846335E1,1.3234248E2,9.9726036E1,4.6336606E2,2.958387E2,6.112237E2,2.6890882E1,8.168333E0,7.642939E1,2.972911E2,9.145846E1,5.311646E0,2.3177975E1,1.0636144E1,7.55931E1,5.201876E1,4.6062827E0,3.2736145E1,1.3810342E1,4.9664946E0,3.2677686E2,9.586804E0,5.793417E0,1.4044833E0,1.3450249E1,1.3106115E0,1.488013E3,4.43798E1,2.1197752E1,8.885572E1,1.3614643E1,1.4417973E0,8.6049164E1,2.4141855E0,1.1315566E2,1.9186827E1,7.535483E1,2.4371204E1,1.1412788E2,3.4923816E2,2.7037686E2,2.5461836E1,5.824556E2,2.8768053E1,4.7958255E0,2.2095057E1,6.224442E0,1.9438907E0,6.89317E0,6.953622E1,1.2855006E2,1.6874104E2,8.898957E1,2.468887E0,3.9807794E0,1.3308666E0,1.7590754E1,5.587221E0,1.3089463E0,9.327198E0,6.8457436E1,7.1356688E0,3.7388435E1,1.4630327E1,3.295396E0,1.3108867E0,3.1411827E1,1.3243164E0],"tree_param":{"num_deleted":"0","num_feature":"768","num_nodes":"107","size_leaf_vector":"1"}},{"base_weights":[-1.2442811E-1,8.049184E-2,-1.9139388E-1,-2.6128086E-1,1.440034E-1,-2.325265E-2,-2.592793E-1,7.591042E-1,-3.7736562E-1,2.6107636E-1,-7.867192E-2,-1.148342E-1,3.2519326E-1,7.1948306E-3,-3.0108145E-1,2.9005438E-1,-1.3036999E-1,-6.0832465E-1,1.2333868E-1,3.3337352E-1,-3.6150002E-1,4.9267247E-1,-1.6270825E-1,-1.7014837E-1,4.095766E-1,1.3675709E-1,8.9083624E-1,2.2582924E-1,-2.9848748E-1,-2.2971146E-1,-4.697484E-1,-6.4977455E-1,2.3427653E-1,-1.9243343E-1,7.3692745E-1,-3.795557E-2,4.7251514E-1,2.804073E-1,-5.337383E-1,7.649399E-1,-1.6706942E-1,-2.3414977E-1,6.64455E-1,-3.963618E-1,-3.481134E-2,6.7618185E-1,-3.394369E-1,-1.7502499E-1,5.277191E-1,-1.1052141E-1,1.0841422E0,3.783048E-1,-1.8898867E-1,-5.550095E-1,1.6147615E-1,-6.8862855E-2,-3.1456748E-1,6.7250985E-1,-4.8825064E-1,-1.9814311E-1,1.9840274E-2,3.233261E-1,-1.6463083E-1,9.361816E-2,-1.22827254E-1,1.7758374E-1,2.0155521E-2,2.842291E-1,-2.0782651E-1,-9.715577E-2,3.3287376E-1,1.782664E-1,-8.913931E-2,3.377443E-1,-1.6322273E-1,-1.294586E-1,2.506028E-1,-8.5733674E-2,5.1539324E-2,3.5758454E-1,1.2499711E-2,2.3675252E-1,-1.6736123E-1,2.5569245E-1,-1.1613477E-1,2.3780245E-1,-7.315479E-2,1.7287014E-1,-1.5956178E-1,-6.7477035E-3,3.3849508E-1,1.8757574E-1,-4.11214E-2,-1.94446E-1,2.4625936E-1,-1.7330368E-1,2.2824407E-1,1.8041784E-1,-4.312656E-2,3.0151957E-1,-9.748875E-2,-1.20306514E-1,3.021887E-1,-1.5145722E-1,2.1426563E-1],"categories":[],"categories_nodes":[],"categories_segments":[],"categories_sizes":[],"default_left":[0,0,0,0,0,0,0,0,0,0,0,0,0,0,0,0,0,0,0,0,0,0,0,0,0,0,0,0,0,0,0,0,0,0,0,0,0,0,0,0,0,0,0,0,0,0,0,0,0,0,0,0,0,0,0,0,0,0,0,0,0,0,0,0,0,0,0,0,0,0,0,0,0,0,0,0,0,0,0,0,0,0,0,0,0,0,0,0,0,0,0,0,0,0,0,0,0,0,0,0,0,0,0,0,0],"id":11,"left_children":[1,3,5,7,9,11,13,15,17,19,21,23,25,27,29,-1,-1,31,33,35,37,39,41,43,45,47,49,51,53,55,57,59,-1,-1,61,63,65,-1,67,69,-1,71,73,75,77,79,81,83,85,87,89,91,-1,93,95,97,99,101,103,-1,-1,-1,-1,-1,-1,-1,-1,-1,-1,-1,-1,-1,-1,-1,-1,-1,-1,-1,-1,-1,-1,-1,-1,-1,-1,-1,-1,-1,-1,-1,-1,-1,-1,-1,-1,-1,-1,-1,-1,-1,-1,-1,-1,-1,-1],"loss_changes":[4.9397602E1,1.9292234E1,3.0955994E1,1.6794117E1,1.9538074E1,2.4968838E1,2.1526154E1,4.0325108E0,1.4622282E1,2.2217335E1,1.2503904E1,1.8037165E1,1.7237638E1,1.7643911E1,1.9998596E1,0E0,0E0,5.4743385E0,1.9496773E1,2.27706E1,1.2009279E1,9.978243E0,1.35301075E1,1.7161764E1,1.2090027E1,1.5127946E1,7.962635E0,2.0319904E1,1.3079913E1,1.6024307E1,1.0803955E1,6.895981E-1,0E0,0E0,1.0652052E1,1.585487E1,1.5470879E1,0E0,1.1525266E1,1.0477025E1,0E0,1.1084282E1,1.0790458E1,9.452587E0,1.8306822E1,1.4394783E1,4.448074E0,1.544577E1,1.1431791E1,2.4661474E0,1.6900902E0,1.6789825E1,0E0,9.618668E0,1.8244705E1,2.0531147E1,1.0879944E1,3.3947015E0,1.0112396E1,0E0,0E0,0E0,0E0,0E0,0E0,0E0,0E0,0E0,0E0,0E0,0E0,0E0,0E0,0E0,0E0,0E0,0E0,0E0,0E0,0E0,0E0,0E0,0E0,0E0,0E0,0E0,0E0,0E0,0E0,0E0,0E0,0E0,0E0,0E0,0E0,0E0,0E0,0E0,0E0,0E0,0E0,0E0,0E0,0E0,0E0],"parents":[2147483647,0,0,1,1,2,2,3,3,4,4,5,5,6,6,7,7,8,8,9,9,10,10,11,11,12,12,13,13,14,14,17,17,18,18,19,19,20,20,21,21,22,22,23,23,24,24,25,25,26,26,27,27,28,28,29,29,30,30,31,31,34,34,35,35,36,36,38,38,39,39,41,41,42,42,43,43,44,44,45,45,46,46,47,47,48,48,49,49,50,50,51,51,53,53,54,54,55,55,56,56,57,57,58,58],"right_children":[2,4,6,8,10,12,14,16,18,20,22,24,26,28,30,-1,-1,32,34,36,38,40,42,44,46,48,50,52,54,56,58,60,-1,-1,62,64,66,-1,68,70,-1,72,74,76,78,80,82,84,86,88,90,92,-1,94,96,98,100,102,104,-1,-1,-1,-1,-1,-1,-1,-1,-1,-1,-1,-1,-1,-1,-1,-1,-1,-1,-1,-1,-1,-1,-1,-1,-1,-1,-1,-1,-1,-1,-1,-1,-1,-1,-1,-1,-1,-1,-1,-1,-1,-1,-1,-1,-1,-1],"split_conditions":[-2.5340208E-1,2.0744972E-2,-1.1029936E-1,-2.6537842E-1,1.013405E-1,1.0344215E-2,-6.3291766E-2,7.491806E-2,4.9357645E-2,1.7628634E-1,6.8807945E-2,5.9959184E-2,3.2655397E-1,1.7889139E-1,-1.008099E-1,2.9005438E-1,-1.3036999E-1,2.786825E-1,2.9758736E-1,-1.5355483E-2,-3.863498E-2,1.5550785E-1,-8.125068E-2,-2.338988E-2,-1.2031674E-1,8.369822E-3,1.5046453E-1,1.8366104E-1,6.96408E-2,-4.0390905E-2,-9.465842E-2,-3.8354203E-2,2.3427653E-1,-1.9243343E-1,-8.586223E-2,2.0220605E-1,3.132252E-2,2.804073E-1,-1.3242371E-2,-1.1844363E-1,-1.6706942E-1,-1.2408146E-1,-1.9884821E-2,5.3934354E-2,1.1328983E-1,7.9071224E-2,-1.0970794E-1,-5.851063E-2,-5.821518E-2,3.6288315E-1,2.5222927E-2,2.1881856E-1,-1.8898867E-1,1.1177555E-1,-8.694932E-2,-8.3204076E-2,1.5787496E-1,3.755284E-1,1.3340044E-1,-1.9814311E-1,1.9840274E-2,3.233261E-1,-1.6463083E-1,9.361816E-2,-1.22827254E-1,1.7758374E-1,2.0155521E-2,2.842291E-1,-2.0782651E-1,-9.715577E-2,3.3287376E-1,1.782664E-1,-8.913931E-2,3.377443E-1,-1.6322273E-1,-1.294586E-1,2.506028E-1,-8.5733674E-2,5.1539324E-2,3.5758454E-1,1.2499711E-2,2.3675252E-1,-1.6736123E-1,2.5569245E-1,-1.1613477E-1,2.3780245E-1,-7.315479E-2,1.7287014E-1,-1.5956178E-1,-6.7477035E-3,3.3849508E-1,1.8757574E-1,-4.11214E-2,-1.94446E-1,2.4625936E-1,-1.7330368E-1,2.2824407E-1,1.8041784E-1,-4.312656E-2,3.0151957E-1,-9.748875E-2,-1.20306514E-1,3.021887E-1,-1.5145722E-1,2.1426563E-1],"split_indices":[167,156,642,705,165,692,467,20,258,600,87,745,48,306,356,0,0,42,48,304,763,205,463,541,254,312,306,722,612,440,646,233,0,0,458,210,477,0,711,558,0,152,453,415,39,225,83,208,358,11,490,624,0,490,618,89,699,11,98,0,0,0,0,0,0,0,0,0,0,0,0,0,0,0,0,0,0,0,0,0,0,0,0,0,0,0,0,0,0,0,0,0,0,0,0,0,0,0,0,0,0,0,0,0,0],"split_type":[0,0,0,0,0,0,0,0,0,0,0,0,0,0,0,0,0,0,0,0,0,0,0,0,0,0,0,0,0,0,0,0,0,0,0,0,0,0,0,0,0,0,0,0,0,0,0,0,0,0,0,0,0,0,0,0,0,0,0,0,0,0,0,0,0,0,0,0,0,0,0,0,0,0,0,0,0,0,0,0,0,0,0,0,0,0,0,0,0,0,0,0,0,0,0,0,0,0,0,0,0,0,0,0,0],"sum_hessian":[3.5975972E3,8.860427E2,2.7115544E3,1.3836261E2,7.476801E2,7.802769E2,1.9312776E3,1.3567248E1,1.2479536E2,4.8992596E2,2.5775415E2,6.184112E2,1.6186572E2,2.619927E2,1.6692849E3,1.1717912E1,1.8493366E0,8.525499E1,3.9540367E1,4.393685E2,5.0557472E1,3.2427074E1,2.2532707E2,5.600169E2,5.8394318E1,1.2234871E2,3.951701E1,1.5289687E2,1.09095825E2,1.1746174E3,4.9466742E2,8.330186E1,1.9531317E0,1.758137E1,2.1959E1,1.19959145E2,3.1940936E2,5.4108706E0,4.5146603E1,2.5963192E1,6.4638824E0,2.0807289E2,1.7254185E1,2.0890582E2,3.5111105E2,4.3137215E1,1.5257104E1,6.83743E1,5.3974415E1,6.463459E0,3.305355E1,1.3024855E2,2.2648315E1,6.99038E1,3.9192024E1,4.0628897E2,7.683285E2,7.321448E0,4.8734598E2,8.215118E1,1.1506805E0,1.7485495E1,4.473505E0,6.1845337E1,5.811381E1,2.4635913E2,7.305022E1,3.8962965E0,4.1250305E1,6.2568192E0,1.9706373E1,1.4106042E1,1.9396686E2,1.2536712E1,4.7174735E0,2.0373846E2,5.167366E0,1.5836377E2,1.927473E2,2.3310638E1,1.9826574E1,2.050359E0,1.3206745E1,1.1183702E1,5.719059E1,4.0157143E1,1.3817272E1,2.3179214E0,4.145538E0,1.2876246E0,3.1765926E1,8.791163E1,4.2336926E1,6.596689E1,3.9369082E0,1.7565212E1,2.1626814E1,4.0128185E1,3.661608E2,5.257116E0,7.6307135E2,1.6934258E0,5.628022E0,4.8127942E2,6.066573E0],"tree_param":{"num_deleted":"0","num_feature":"768","num_nodes":"105","size_leaf_vector":"1"}},{"base_weights":[-1.0177412E-1,-2.8503156E-1,-2.3664631E-2,-3.8104796E-1,-1.11759804E-1,1.3239226E-1,-1.3259432E-1,-2.1646981E-1,-5.012249E-1,9.8990455E-2,-2.8915027E-1,2.891807E-1,-2.7131144E-2,-2.9923818E-1,-1.218283E-2,5.554564E-1,-2.67728E-1,4.9943948E-1,-5.2364296E-1,-2.1137443E-1,4.3276772E-1,7.3481226E-1,-3.3247754E-1,3.3355993E-1,-3.543102E-1,-8.295306E-2,5.04406E-1,2.4718046E-1,-3.2137975E-1,-5.3160682E-2,5.8801615E-1,-1.508102E-1,3.026363E-1,3.129427E-1,-2.933808E-1,3.839847E-1,-1.428494E-1,3.0951336E-1,-5.434255E-1,-4.2132998E-1,4.260683E-1,6.5362155E-1,-3.0726397E-1,2.5117525E-1,5.5093337E-3,-3.7059668E-1,2.3688468E-1,9.037136E-2,4.5331836E-1,-1.9161813E-1,6.1427003E-1,7.2779655E-2,-2.543498E-1,8.099111E-1,-8.536846E-2,2.486062E-1,-3.5569748E-1,-1.7491122E-1,1.0242801E-1,-4.8475504E-1,7.6824784E-1,-3.0664135E-2,-1.4870454E-1,4.6973282E-1,-1.5178534E-1,-1.6604602E-1,2.8601617E-1,2.6463774E-1,-1.469792E-1,-1.6454247E-1,2.704601E-1,2.3364747E-1,-1.03568934E-1,2.3374934E-1,-1.7098683E-1,1.5601534E-1,-1.22664854E-1,1.6463464E-1,-1.7793061E-2,-1.2617561E-2,1.603374E-1,-1.1739243E-1,2.8479722E-1,1.9475362E-1,-2.150449E-3,7.083273E-2,-9.795126E-2,-1.5011062E-1,2.8111604E-1,1.5917102E-1,-1.8470845E-1,-1.0965074E-1,1.9818325E-1,-1.1593897E-1,9.0281576E-2,1.1948891E-1,-6.981175E-2,-5.176695E-2,8.612272E-2,1.8129645E-2,-1.7105095E-1,-3.1994767E-2,2.7975208E-1],"categories":[],"categories_nodes":[],"categories_segments":[],"categories_sizes":[],"default_left":[0,0,0,0,0,0,0,0,0,0,0,0,0,0,0,0,0,0,0,0,0,0,0,0,0,0,0,0,0,0,0,0,0,0,0,0,0,0,0,0,0,0,0,0,0,0,0,0,0,0,0,0,0,0,0,0,0,0,0,0,0,0,0,0,0,0,0,0,0,0,0,0,0,0,0,0,0,0,0,0,0,0,0,0,0,0,0,0,0,0,0,0,0,0,0,0,0,0,0,0,0,0,0],"id":12,"left_children":[1,3,5,7,9,11,13,15,17,19,21,23,25,27,29,31,33,35,37,39,41,43,45,47,49,51,53,-1,55,57,59,-1,-1,-1,61,-1,-1,63,65,67,69,71,73,-1,-1,75,-1,77,79,-1,81,83,85,87,89,91,93,95,97,99,101,-1,-1,-1,-1,-1,-1,-1,-1,-1,-1,-1,-1,-1,-1,-1,-1,-1,-1,-1,-1,-1,-1,-1,-1,-1,-1,-1,-1,-1,-1,-1,-1,-1,-1,-1,-1,-1,-1,-1,-1,-1,-1],"loss_changes":[4.8831547E1,1.6919647E1,4.0702454E1,1.2858482E1,1.3672053E1,2.4627712E1,2.828904E1,1.1166336E1,8.744751E0,1.7446733E1,9.046848E0,1.429744E1,1.4546152E1,1.4972454E1,2.0188814E1,8.980402E0,9.109285E0,7.3089876E0,6.2724533E0,1.1887804E1,1.3447596E1,5.9862614E-1,8.464176E0,1.3501499E1,9.350544E0,1.1849292E1,8.465334E0,0E0,1.1447197E1,1.4568435E1,1.0515961E1,0E0,0E0,0E0,9.909367E0,0E0,0E0,1.0244717E1,5.9813156E0,6.3615494E0,1.0768343E1,8.115244E0,5.9548473E0,0E0,0E0,6.536297E0,0E0,1.0645973E1,1.2535728E1,0E0,3.0301688E0,1.0741961E1,7.552143E0,5.5987434E0,5.8163667E0,8.734088E0,1.118956E1,1.4380555E1,1.7203041E1,4.1441417E-1,6.6099987E0,0E0,0E0,0E0,0E0,0E0,0E0,0E0,0E0,0E0,0E0,0E0,0E0,0E0,0E0,0E0,0E0,0E0,0E0,0E0,0E0,0E0,0E0,0E0,0E0,0E0,0E0,0E0,0E0,0E0,0E0,0E0,0E0,0E0,0E0,0E0,0E0,0E0,0E0,0E0,0E0,0E0,0E0],"parents":[2147483647,0,0,1,1,2,2,3,3,4,4,5,5,6,6,7,7,8,8,9,9,10,10,11,11,12,12,13,13,14,14,15,15,16,16,17,17,18,18,19,19,20,20,21,21,22,22,23,23,24,24,25,25,26,26,28,28,29,29,30,30,34,34,37,37,38,38,39,39,40,40,41,41,42,42,45,45,47,47,48,48,50,50,51,51,52,52,53,53,54,54,55,55,56,56,57,57,58,58,59,59,60,60],"right_children":[2,4,6,8,10,12,14,16,18,20,22,24,26,28,30,32,34,36,38,40,42,44,46,48,50,52,54,-1,56,58,60,-1,-1,-1,62,-1,-1,64,66,68,70,72,74,-1,-1,76,-1,78,80,-1,82,84,86,88,90,92,94,96,98,100,102,-1,-1,-1,-1,-1,-1,-1,-1,-1,-1,-1,-1,-1,-1,-1,-1,-1,-1,-1,-1,-1,-1,-1,-1,-1,-1,-1,-1,-1,-1,-1,-1,-1,-1,-1,-1,-1,-1,-1,-1,-1,-1],"split_conditions":[1.0476795E-1,-1.5740272E-1,2.3009025E-1,6.370435E-2,-1.5528238E-1,-1.4773408E-1,1.7423338E-1,2.380755E-2,-1.0233707E-1,-5.7550568E-2,-1.4607206E-1,4.8224866E-2,1.05186E-1,5.2913733E-2,1.033771E-1,-1.9018783E-1,-2.6840074E-2,4.5578633E-3,-1.6644247E-1,4.690529E-2,9.8297656E-2,6.5614562E-3,4.1944528E-1,-2.77934E-2,5.422379E-2,3.6202231E-3,1.5415913E-1,2.4718046E-1,-2.2169128E-1,1.0891342E-1,-3.2818648E-1,-1.508102E-1,3.026363E-1,3.129427E-1,-2.8083292E-1,3.839847E-1,-1.428494E-1,1.554971E-1,1.1597548E-1,1.64899E-1,9.360449E-2,4.5210928E-2,8.320145E-2,2.5117525E-1,5.5093337E-3,-1.50773E-1,2.3688468E-1,-1.7616035E-2,-1.1799887E-1,-1.9161813E-1,-5.4550093E-2,1.1350556E-1,-4.9080826E-2,1.11169346E-1,-3.028837E-3,1.4872224E-2,1.6294011E-1,-1.2771158E-1,1.1099951E-1,-9.742277E-2,1.1344771E-1,-3.0664135E-2,-1.4870454E-1,4.6973282E-1,-1.5178534E-1,-1.6604602E-1,2.8601617E-1,2.6463774E-1,-1.469792E-1,-1.6454247E-1,2.704601E-1,2.3364747E-1,-1.03568934E-1,2.3374934E-1,-1.7098683E-1,1.5601534E-1,-1.22664854E-1,1.6463464E-1,-1.7793061E-2,-1.2617561E-2,1.603374E-1,-1.1739243E-1,2.8479722E-1,1.9475362E-1,-2.150449E-3,7.083273E-2,-9.795126E-2,-1.5011062E-1,2.8111604E-1,1.5917102E-1,-1.8470845E-1,-1.0965074E-1,1.9818325E-1,-1.1593897E-1,9.0281576E-2,1.1948891E-1,-6.981175E-2,-5.176695E-2,8.612272E-2,1.8129645E-2,-1.7105095E-1,-3.1994767E-2,2.7975208E-1],"split_indices":[285,62,66,502,36,143,71,217,121,542,266,407,23,344,134,472,621,224,236,461,685,93,529,317,302,744,574,0,245,87,137,0,0,0,408,0,0,14,133,131,115,113,746,0,0,324,0,476,558,0,18,306,429,42,29,671,350,734,272,635,345,0,0,0,0,0,0,0,0,0,0,0,0,0,0,0,0,0,0,0,0,0,0,0,0,0,0,0,0,0,0,0,0,0,0,0,0,0,0,0,0,0,0],"split_type":[0,0,0,0,0,0,0,0,0,0,0,0,0,0,0,0,0,0,0,0,0,0,0,0,0,0,0,0,0,0,0,0,0,0,0,0,0,0,0,0,0,0,0,0,0,0,0,0,0,0,0,0,0,0,0,0,0,0,0,0,0,0,0,0,0,0,0,0,0,0,0,0,0,0,0,0,0,0,0,0,0,0,0,0,0,0,0,0,0,0,0,0,0,0,0,0,0,0,0,0,0,0,0],"sum_hessian":[3.4108906E3,1.0185528E3,2.392338E3,6.546097E2,3.639431E2,9.833447E2,1.408993E3,2.7745108E2,3.7715857E2,1.6653352E2,1.974096E2,4.9551367E2,4.8783105E2,5.904093E2,8.185838E2,1.6663876E1,2.607872E2,7.7981625E0,3.693604E2,8.6483246E1,8.005027E1,7.3660703E0,1.9004353E2,4.6399524E2,3.1518425E1,4.422319E2,4.559916E1,1.0713916E1,5.796954E2,7.67121E2,5.1462822E1,4.96523E0,1.1698647E1,4.2441707E0,2.5654303E2,4.158942E0,3.6392202E0,8.227026E0,3.611334E2,6.531077E1,2.1172482E1,6.174112E1,1.8309153E1,6.2970905E0,1.0689799E0,1.8444731E2,5.5962176E0,1.536794E2,3.1031586E2,2.4627333E1,6.8910913E0,2.3200517E2,2.1022673E2,2.9793022E1,1.5806136E1,3.2565647E1,5.471297E2,4.3028906E2,3.3683194E2,7.1593685E0,4.4303455E1,1.3267514E2,1.2386789E2,2.87612E0,5.350906E0,3.5934818E2,1.785226E0,2.6725113E0,6.2638256E1,6.8922157E0,1.4280265E1,5.5059803E1,6.6813183E0,3.182219E0,1.5126933E1,7.0834002E0,1.773639E2,3.7171776E1,1.16507614E2,4.3742016E1,2.6657385E2,1.6802773E0,5.210814E0,2.7392647E1,2.0461252E2,2.6669878E1,1.8355685E2,2.3755915E0,2.741743E1,7.3125916E0,8.493545E0,1.3121065E1,1.9444582E1,5.230351E2,2.4094614E1,3.88713E1,3.9141776E2,1.3534155E2,2.0149039E2,1.0093507E0,6.1500177E0,7.058472E0,3.7244984E1],"tree_param":{"num_deleted":"0","num_feature":"768","num_nodes":"103","size_leaf_vector":"1"}},{"base_weights":[1.5664515E-1,1.1876658E-1,2.4023703E-1,2.0714577E-1,5.0136767E-2,2.6223394E-1,-3.3020344E-1,2.0374607E-2,2.912704E-1,8.683433E-2,-2.8524002E-1,3.5855585E-1,1.21469446E-1,4.984775E-1,-5.9847254E-1,3.4507775E-1,-7.531248E-2,4.535502E-1,2.0341308E-1,1.373283E-1,-1.4087728E-1,6.527322E-1,-3.5912493E-1,6.7591034E-2,4.164291E-1,-1.3562937E-1,2.4557157E-1,2.209646E-1,-1.5053919E-1,-6.7668116E-1,1.5416701E-1,-2.8117833E-1,5.578381E-1,3.991707E-2,-4.2903855E-1,2.647428E-1,6.2515193E-1,1.0298907E-1,4.8058954E-1,9.844714E-2,4.673936E-1,-1.8964885E-1,2.6134163E-1,-1.3884863E-1,2.4808376E-1,7.050439E-1,-4.2239764E-1,4.4888604E-1,-3.0527037E-1,-3.2863453E-1,4.4608706E-1,-3.9975148E-1,2.5451878E-1,-1.0849511E-1,4.1786984E-1,-1.4321196E-3,-2.1025713E-1,-2.017392E-1,2.1694821E-1,2.0796269E-1,-7.3252164E-2,3.8327705E-2,-1.2625976E-1,2.4390966E-2,-1.7485347E-1,1.3384484E-1,-3.4553416E-2,2.1283768E-1,2.2012167E-2,4.1779787E-3,1.2661314E-1,-6.964656E-2,1.7162709E-1,1.09120965E-1,1.5939198E-2,1.8352734E-1,-7.343627E-2,-8.494975E-2,6.1373442E-2,5.45238E-2,2.3250352E-1,-1.8138868E-1,2.7516061E-2,-7.134352E-2,2.224894E-1,3.5776533E-2,-2.3067386E-1,2.014349E-1,-1.7497858E-1,-1.9388022E-1,1.3906099E-1,3.20287E-2,-1.7030627E-1,1.6072492E-1,-1.10424876E-1,-1.2744766E-1,1.1071362E-1,-1.2772988E-1,1.4925246E-1],"categories":[],"categories_nodes":[],"categories_segments":[],"categories_sizes":[],"default_left":[0,0,0,0,0,0,0,0,0,0,0,0,0,0,0,0,0,0,0,0,0,0,0,0,0,0,0,0,0,0,0,0,0,0,0,0,0,0,0,0,0,0,0,0,0,0,0,0,0,0,0,0,0,0,0,0,0,0,0,0,0,0,0,0,0,0,0,0,0,0,0,0,0,0,0,0,0,0,0,0,0,0,0,0,0,0,0,0,0,0,0,0,0,0,0,0,0,0,0],"id":13,"left_children":[1,3,5,7,9,11,13,15,17,19,21,23,25,27,29,31,33,35,37,39,41,43,45,47,49,51,53,-1,-1,55,-1,57,59,61,63,65,67,69,71,73,75,77,-1,-1,-1,79,81,83,85,87,89,91,93,95,97,-1,-1,-1,-1,-1,-1,-1,-1,-1,-1,-1,-1,-1,-1,-1,-1,-1,-1,-1,-1,-1,-1,-1,-1,-1,-1,-1,-1,-1,-1,-1,-1,-1,-1,-1,-1,-1,-1,-1,-1,-1,-1,-1,-1],"loss_changes":[1.3907494E1,1.8372807E1,1.7296036E1,2.0804195E1,2.1037834E1,1.7869263E1,1.1717392E1,1.2838562E1,1.2926086E1,1.7723022E1,1.1920626E1,1.31716385E1,1.720707E1,3.4909754E0,3.763051E0,1.268734E1,1.3033173E1,1.0199066E1,1.6489954E1,1.6133732E1,1.3982828E1,2.8446956E0,1.0866335E1,1.879564E1,1.459005E1,1.8225134E1,2.221319E1,0E0,0E0,5.994816E-1,0E0,1.0119314E1,7.826664E0,9.840288E0,6.213146E0,1.0668361E1,7.7095947E0,1.2424271E1,1.042104E1,1.3555452E1,1.3782555E1,9.934541E0,0E0,0E0,0E0,1.953826E-1,1.3994051E1,1.3301786E1,1.3269283E1,6.910229E0,1.2289726E1,9.014679E0,1.2735756E1,1.8244831E1,1.6647938E1,0E0,0E0,0E0,0E0,0E0,0E0,0E0,0E0,0E0,0E0,0E0,0E0,0E0,0E0,0E0,0E0,0E0,0E0,0E0,0E0,0E0,0E0,0E0,0E0,0E0,0E0,0E0,0E0,0E0,0E0,0E0,0E0,0E0,0E0,0E0,0E0,0E0,0E0,0E0,0E0,0E0,0E0,0E0,0E0],"parents":[2147483647,0,0,1,1,2,2,3,3,4,4,5,5,6,6,7,7,8,8,9,9,10,10,11,11,12,12,13,13,14,14,15,15,16,16,17,17,18,18,19,19,20,20,21,21,22,22,23,23,24,24,25,25,26,26,29,29,31,31,32,32,33,33,34,34,35,35,36,36,37,37,38,38,39,39,40,40,41,41,45,45,46,46,47,47,48,48,49,49,50,50,51,51,52,52,53,53,54,54],"right_children":[2,4,6,8,10,12,14,16,18,20,22,24,26,28,30,32,34,36,38,40,42,44,46,48,50,52,54,-1,-1,56,-1,58,60,62,64,66,68,70,72,74,76,78,-1,-1,-1,80,82,84,86,88,90,92,94,96,98,-1,-1,-1,-1,-1,-1,-1,-1,-1,-1,-1,-1,-1,-1,-1,-1,-1,-1,-1,-1,-1,-1,-1,-1,-1,-1,-1,-1,-1,-1,-1,-1,-1,-1,-1,-1,-1,-1,-1,-1,-1,-1,-1,-1],"split_conditions":[1.286502E-1,-1.8173215E-1,4.6461083E-2,1.1828068E-1,1.2184665E-2,-1.5808985E-1,1.3497992E-2,-2.544502E-1,5.422813E-2,-2.4358382E-2,-5.525615E-2,-1.479286E-1,5.066353E-2,-1.2410692E-1,1.05617665E-1,1.9784433E-1,3.7524976E-2,-2.2837614E-1,2.123143E-1,3.8248546E-2,1.8301822E-2,1.00776E-1,-1.4306132E-1,-9.3260705E-2,-1.5961531E-1,1.3173524E-1,-1.0290818E-2,2.209646E-1,-1.5053919E-1,-2.608882E-1,1.5416701E-1,4.248482E-2,2.0064971E-1,6.17404E-2,-2.5545967E-1,1.83401E-1,-8.412716E-2,-6.854461E-2,-1.7767689E-1,1.7013741E-3,2.388539E-1,2.5460687E-1,2.6134163E-1,-1.3884863E-1,2.4808376E-1,-1.7281592E-1,1.05706535E-1,6.8948016E-2,1.9546105E-2,-3.3529676E-2,1.0321365E-1,1.6063754E-1,-2.642763E-2,1.6565345E-1,1.2837659E-1,-1.4321196E-3,-2.1025713E-1,-2.017392E-1,2.1694821E-1,2.0796269E-1,-7.3252164E-2,3.8327705E-2,-1.2625976E-1,2.4390966E-2,-1.7485347E-1,1.3384484E-1,-3.4553416E-2,2.1283768E-1,2.2012167E-2,4.1779787E-3,1.2661314E-1,-6.964656E-2,1.7162709E-1,1.09120965E-1,1.5939198E-2,1.8352734E-1,-7.343627E-2,-8.494975E-2,6.1373442E-2,5.45238E-2,2.3250352E-1,-1.8138868E-1,2.7516061E-2,-7.134352E-2,2.224894E-1,3.5776533E-2,-2.3067386E-1,2.014349E-1,-1.7497858E-1,-1.9388022E-1,1.3906099E-1,3.20287E-2,-1.7030627E-1,1.6072492E-1,-1.10424876E-1,-1.2744766E-1,1.1071362E-1,-1.2772988E-1,1.4925246E-1],"split_indices":[512,109,275,344,334,702,632,213,354,400,726,401,441,21,502,3,763,518,766,747,263,522,244,570,374,582,477,0,0,524,0,646,298,161,2,117,640,706,143,621,710,131,0,0,0,245,81,12,116,564,555,147,664,722,49,0,0,0,0,0,0,0,0,0,0,0,0,0,0,0,0,0,0,0,0,0,0,0,0,0,0,0,0,0,0,0,0,0,0,0,0,0,0,0,0,0,0,0,0],"split_type":[0,0,0,0,0,0,0,0,0,0,0,0,0,0,0,0,0,0,0,0,0,0,0,0,0,0,0,0,0,0,0,0,0,0,0,0,0,0,0,0,0,0,0,0,0,0,0,0,0,0,0,0,0,0,0,0,0,0,0,0,0,0,0,0,0,0,0,0,0,0,0,0,0,0,0,0,0,0,0,0,0,0,0,0,0,0,0,0,0,0,0,0,0,0,0,0,0,0,0],"sum_hessian":[4.4003022E3,3.029806E3,1.3704963E3,1.3234688E3,1.706337E3,1.3201306E3,5.036563E1,4.1137897E2,9.1208984E2,1.5387096E3,1.676274E2,7.82878E2,5.372526E2,1.2107512E1,3.825812E1,9.3042755E1,3.183362E2,3.188974E2,5.9319244E2,1.2597606E3,2.7894904E2,1.1667936E1,1.5595946E2,1.3024136E2,6.5263666E2,1.748754E2,3.6237723E2,9.992818E0,2.114694E0,3.611089E1,2.1472313E0,2.351252E1,6.9530235E1,2.4078531E2,7.75509E1,1.5304741E2,1.6584998E2,4.364379E2,1.5675456E2,1.1281631E3,1.3159752E2,2.668991E2,1.204993E1,1.3522506E0,1.0315686E1,8.183313E0,1.4777615E2,6.429164E1,6.594972E1,2.4598385E1,6.2803827E2,1.04265335E2,7.061007E1,1.1874038E2,2.4363686E2,1.2957693E0,3.481512E1,1.7158205E1,6.354314E0,5.9605194E1,9.925041E0,2.0283948E2,3.7945827E1,1.8068748E1,5.9482155E1,1.0346843E2,4.9578983E1,1.4362025E2,2.2229723E1,3.4201096E2,9.442693E1,1.765941E1,1.3909515E2,1.635705E2,9.645926E2,1.09535E2,2.2062506E1,2.1595325E2,5.0945854E1,1.3893979E0,6.7939153E0,1.0897385E2,3.8802303E1,1.9272186E1,4.5019455E1,3.4814903E1,3.113482E1,4.659716E0,1.9938667E1,9.308114E0,6.1873016E2,2.605246E1,7.8212875E1,4.873557E1,2.1874496E1,7.1492805E1,4.7247578E1,2.0640347E1,2.229965E2],"tree_param":{"num_deleted":"0","num_feature":"768","num_nodes":"99","size_leaf_vector":"1"}},{"base_weights":[-1.0015136E-1,-7.2459253E-3,-2.2195227E-1,1.745883E-1,-8.10027E-2,-2.83899E-1,-8.56683E-3,3.3955002E-1,-1.0163828E-1,-2.5938798E-2,-3.2290617E-1,-4.1230825E-1,-1.5365346E-1,5.7551265E-1,-1.0453737E-1,2.1094069E-1,7.4650407E-1,3.4697127E-1,-2.4728946E-1,-2.741171E-1,3.2534603E-2,-3.9476192E-1,4.9150553E-1,8.0472994E-1,-4.333778E-1,3.405862E-1,-1.993819E-1,-4.549507E-1,7.9380745E-1,-4.7130293E-1,4.5112703E-2,3.2045177E-1,-3.639261E-1,9.7604495E-1,4.2982068E-2,6.207293E-1,-5.3068864E-1,7.63852E-1,-3.4383443E-1,-3.8115916E-1,6.1235744E-1,4.1885442E-1,-1.7635513E-2,6.124484E-1,-4.3580303E-1,8.3190674E-1,-1.538692E-1,-1.4333524E-1,4.033528E-1,-4.562493E-1,3.3600292E-1,8.8421637E-1,-1.4811324E-1,2.732095E-1,-2.464598E-1,-1.6602673E-1,4.182513E-2,9.8297435E-1,-2.8799027E-1,-5.2981E-1,2.3580204E-1,1.8751414E-1,-4.268107E-1,-1.3658412E-1,1.2173891E-1,2.7122852E-1,-1.7480987E-1,3.2164776E-1,-1.0766939E-1,2.8223935E-1,-1.727607E-1,-1.5738204E-1,2.3344254E-1,-1.7622226E-1,1.830887E-2,-1.5378508E-1,3.3444014E-1,2.1847081E-1,-1.2283214E-1,1.0906449E-1,-1.326674E-1,-1.5632927E-1,2.717298E-1,2.2303957E-1,-5.3833336E-2,-1.4654494E-2,1.6651374E-1,-8.656187E-2,3.5732955E-1,-1.3951597E-1,2.3533034E-1,9.508818E-2,2.646227E-1,-1.4079554E-1,3.1803674E-1,2.7906948E-1,-1.7471145E-1,5.3994153E-2,2.8867906E-1,-1.4524795E-1,2.3891757E-1,2.5848436E-1,-1.5458622E-2,2.0405887E-1,-8.307651E-2,3.1796184E-1,-4.583812E-2,1.2728453E-1,-1.6130793E-1,-1.7217578E-1,1.7246205E-1,8.786044E-2,-1.3835472E-1,-1.6425306E-1,1.0931353E-1],"categories":[],"categories_nodes":[],"categories_segments":[],"categories_sizes":[],"default_left":[0,0,0,0,0,0,0,0,0,0,0,0,0,0,0,0,0,0,0,0,0,0,0,0,0,0,0,0,0,0,0,0,0,0,0,0,0,0,0,0,0,0,0,0,0,0,0,0,0,0,0,0,0,0,0,0,0,0,0,0,0,0,0,0,0,0,0,0,0,0,0,0,0,0,0,0,0,0,0,0,0,0,0,0,0,0,0,0,0,0,0,0,0,0,0,0,0,0,0,0,0,0,0,0,0,0,0,0,0,0,0,0,0,0,0],"id":14,"left_children":[1,3,5,7,9,11,13,15,17,19,21,23,25,27,29,31,33,35,37,39,41,43,45,47,49,51,53,55,57,59,61,63,65,67,69,71,73,75,77,79,81,83,85,87,89,91,-1,-1,-1,93,95,97,99,101,103,-1,-1,105,107,109,-1,111,113,-1,-1,-1,-1,-1,-1,-1,-1,-1,-1,-1,-1,-1,-1,-1,-1,-1,-1,-1,-1,-1,-1,-1,-1,-1,-1,-1,-1,-1,-1,-1,-1,-1,-1,-1,-1,-1,-1,-1,-1,-1,-1,-1,-1,-1,-1,-1,-1,-1,-1,-1,-1],"loss_changes":[3.8663162E1,2.602403E1,1.9540665E1,2.5550467E1,1.8378807E1,1.9099724E1,1.8763783E1,1.8204021E1,1.3816686E1,1.6342495E1,1.5167458E1,1.5128281E1,1.2959934E1,1.09879875E1,1.5797117E1,1.6986609E1,1.34991455E1,1.280442E1,1.580598E1,2.060887E1,1.7679792E1,1.0009117E1,7.6716733E0,7.6748047E0,1.013446E1,1.3063028E1,1.169771E1,5.9771E-1,8.335268E0,6.5499687E0,1.3859736E1,1.5122084E1,1.2551931E1,8.490997E0,1.25844145E1,7.626623E0,4.6825147E-1,6.927354E0,1.0569361E1,8.901642E0,8.293418E0,2.0495527E1,1.4469471E1,5.3711157E0,8.468166E0,1.3913822E-1,0E0,0E0,0E0,1.1422264E1,9.792149E0,1.101244E0,8.793449E0,9.183813E0,1.3622368E1,0E0,0E0,3.1068382E0,1.4072945E0,4.241209E0,0E0,1.0947697E1,4.767605E0,0E0,0E0,0E0,0E0,0E0,0E0,0E0,0E0,0E0,0E0,0E0,0E0,0E0,0E0,0E0,0E0,0E0,0E0,0E0,0E0,0E0,0E0,0E0,0E0,0E0,0E0,0E0,0E0,0E0,0E0,0E0,0E0,0E0,0E0,0E0,0E0,0E0,0E0,0E0,0E0,0E0,0E0,0E0,0E0,0E0,0E0,0E0,0E0,0E0,0E0,0E0,0E0],"parents":[2147483647,0,0,1,1,2,2,3,3,4,4,5,5,6,6,7,7,8,8,9,9,10,10,11,11,12,12,13,13,14,14,15,15,16,16,17,17,18,18,19,19,20,20,21,21,22,22,23,23,24,24,25,25,26,26,27,27,28,28,29,29,30,30,31,31,32,32,33,33,34,34,35,35,36,36,37,37,38,38,39,39,40,40,41,41,42,42,43,43,44,44,45,45,49,49,50,50,51,51,52,52,53,53,54,54,57,57,58,58,59,59,61,61,62,62],"right_children":[2,4,6,8,10,12,14,16,18,20,22,24,26,28,30,32,34,36,38,40,42,44,46,48,50,52,54,56,58,60,62,64,66,68,70,72,74,76,78,80,82,84,86,88,90,92,-1,-1,-1,94,96,98,100,102,104,-1,-1,106,108,110,-1,112,114,-1,-1,-1,-1,-1,-1,-1,-1,-1,-1,-1,-1,-1,-1,-1,-1,-1,-1,-1,-1,-1,-1,-1,-1,-1,-1,-1,-1,-1,-1,-1,-1,-1,-1,-1,-1,-1,-1,-1,-1,-1,-1,-1,-1,-1,-1,-1,-1,-1,-1,-1,-1],"split_conditions":[-2.2331087E-1,-1.0767426E-1,1.45388E-1,-1.3526398E-1,-2.6812327E-1,2.5051646E-2,-6.701133E-2,1.9762178E-1,5.6738486E-3,2.8015532E-2,9.35764E-2,-2.0460178E-1,-4.0516505E-1,3.5145685E-2,3.299883E-2,-1.8351334E-3,1.5389277E-1,-6.613305E-2,-1.668511E-1,-8.652924E-2,1.8917614E-1,-4.825604E-2,-9.351352E-2,-2.1831578E-1,5.9586193E-2,1.1666881E-1,8.9775555E-2,-1.5185517E-1,8.5034475E-2,2.2561183E-2,1.1068047E-1,1.5493144E-2,-1.4551684E-1,1.7807868E-1,-2.3795596E-1,-9.5159456E-2,1.2551293E-1,-1.8790875E-2,1.8969814E-1,-4.268719E-2,1.3050633E-2,1.6507998E-1,1.1784244E-1,1.19387746E-1,1.9146657E-1,-1.3873194E-1,-1.538692E-1,-1.4333524E-1,4.033528E-1,7.7475995E-2,-9.361066E-2,-1.06141835E-1,-8.466381E-4,-2.4519946E-1,-1.1107683E-2,-1.6602673E-1,4.182513E-2,1.6506644E-1,-2.8466983E-2,2.2046836E-1,2.3580204E-1,5.7271194E-2,1.4376818E-1,-1.3658412E-1,1.2173891E-1,2.7122852E-1,-1.7480987E-1,3.2164776E-1,-1.0766939E-1,2.8223935E-1,-1.727607E-1,-1.5738204E-1,2.3344254E-1,-1.7622226E-1,1.830887E-2,-1.5378508E-1,3.3444014E-1,2.1847081E-1,-1.2283214E-1,1.0906449E-1,-1.326674E-1,-1.5632927E-1,2.717298E-1,2.2303957E-1,-5.3833336E-2,-1.4654494E-2,1.6651374E-1,-8.656187E-2,3.5732955E-1,-1.3951597E-1,2.3533034E-1,9.508818E-2,2.646227E-1,-1.4079554E-1,3.1803674E-1,2.7906948E-1,-1.7471145E-1,5.3994153E-2,2.8867906E-1,-1.4524795E-1,2.3891757E-1,2.5848436E-1,-1.5458622E-2,2.0405887E-1,-8.307651E-2,3.1796184E-1,-4.583812E-2,1.2728453E-1,-1.6130793E-1,-1.7217578E-1,1.7246205E-1,8.786044E-2,-1.3835472E-1,-1.6425306E-1,1.0931353E-1],"split_indices":[167,642,425,15,494,708,202,153,644,156,353,269,521,293,145,679,80,34,558,648,466,534,175,31,415,230,345,31,23,429,60,762,347,746,213,643,719,128,268,656,190,512,682,189,272,51,0,0,0,110,309,8,667,68,728,0,0,689,69,368,0,10,536,0,0,0,0,0,0,0,0,0,0,0,0,0,0,0,0,0,0,0,0,0,0,0,0,0,0,0,0,0,0,0,0,0,0,0,0,0,0,0,0,0,0,0,0,0,0,0,0,0,0,0,0],"split_type":[0,0,0,0,0,0,0,0,0,0,0,0,0,0,0,0,0,0,0,0,0,0,0,0,0,0,0,0,0,0,0,0,0,0,0,0,0,0,0,0,0,0,0,0,0,0,0,0,0,0,0,0,0,0,0,0,0,0,0,0,0,0,0,0,0,0,0,0,0,0,0,0,0,0,0,0,0,0,0,0,0,0,0,0,0,0,0,0,0,0,0,0,0,0,0,0,0,0,0,0,0,0,0,0,0,0,0,0,0,0,0,0,0,0,0],"sum_hessian":[3.4158333E3,1.9383715E3,1.4774618E3,5.58968E2,1.3794034E3,1.1447928E3,3.3266895E2,3.4982455E2,2.0914348E2,1.1245354E3,2.5486801E2,5.753697E2,5.6942316E2,4.6242004E1,2.8642694E2,2.66972E2,8.285257E1,5.0921543E1,1.5822194E2,2.1372707E2,9.108084E2,2.3467764E2,2.0190382E1,9.158424E0,5.6621124E2,4.7676853E1,5.217463E2,7.8940306E0,3.8347977E1,8.237969E1,2.0404726E2,2.2462405E2,4.2347916E1,6.2178112E1,2.0674461E1,3.9037716E1,1.1883827E1,1.318805E1,1.4503389E2,1.912086E2,2.2518467E1,1.0384358E2,8.069648E2,8.642987E0,2.2603465E2,1.5207994E1,4.9823866E0,2.7468262E0,6.411598E0,5.5026056E2,1.5950695E1,2.2186842E1,2.5490011E1,4.6830906E1,4.749154E2,6.831167E0,1.062863E0,3.2718124E1,5.6298523E0,7.9269615E1,3.1100793E0,1.5721175E2,